svm_type c_svc
kernel_type rbf
gamma -4.73653
nr_class 5
total_sv 114
rho -79.0914845024967 -115.546997166695 -1869.19204758637 -171.839290453687 10.8993819390774 -292.051273247442 -172.792821773004 -214.84650152843 -77.9181118703794 28.2003978082799
label 1 2 3 4 5
probA -6.27907205672238E-05 9.00407410305405E-05 0.000678734357042213 0.000214464389417613 0.00691495604788382 0.00224427872527621 0.00596761091050195 0.00407517297225681 0.00801162953036726 0.00422648077212916
probB -1.09620400201437 -1.38448806547249 -2.97341925911239 -1.60392108291791 -0.197621436899961 -0.652669187403283 -0.933057247665391 -0.337861196774471 -0.285989660347273 -0.0647225513266046
nr_sv 26 27 22 20 19
SV
10.14392 10.14392 10.14392 10.14392 1:0 2:0 3:0 4:0 5:0.198221803189888 6:0.124812093085637 7:0.641184542957299 8:0.142974619668823 9:0.138014265670673 10:0.0988584879887238 11:0.660040068885266 12:0.2167612981957 13:0.181952234308589 14:0.123707158085548 15:0.697053065764804 16:0.317873756958569 17:0.476464233969671 18:0.328316938082014 19:0.730341175653038 20:0.46804335688158 21:0.211018371227755 22:0.122609686889036 23:0.687320171663078 24:0.286702183210181 
10.14392 0 0 0 1:0.0883883476483184 2:0.0293319490270326 3:0.655152403748595 4:0.175117487014593 5:0.1978424927883 6:0.13575659119316 7:0.699668975993391 8:0.258953537264796 9:0.25676880453135 10:0.145850124134031 11:0.712558602112436 12:0.354002619732306 13:0.317191247627358 14:0.173030234270914 15:0.723329558256077 16:0.402547612203483 17:0.473849946388291 18:0.318705146789811 19:0.733006507042546 20:0.457585301116646 21:0.232807858758784 22:0.13924824003243 23:0.712066546483914 24:0.350653788621241 
10.14392 10.14392 10.14392 10.14392 1:0.0662912607362388 2:0.0170499394767739 3:0.519766338925626 4:0.04840919470239 5:0.18592826029973 6:0.12013089866115 7:0.658999539532547 8:0.132947085172773 9:0.26383707822546 10:0.116266650767439 11:0.689855002000847 12:0.263571108120233 13:0.301889622172403 14:0.147111240156956 15:0.715675819343745 16:0.358480274317984 17:0.570686791890882 18:0.372952750161745 19:0.757816440398711 20:0.666317007885409 21:0.247138848312281 22:0.132765075659219 23:0.693999989139697 24:0.275378034460447 
10.14392 10.14392 10.14392 10.14392 1:0.0698771242968684 2:0.0223580765173301 3:0.569510641170531 4:0.081675392670157 5:0.18592826029973 6:0.12618148989539 7:0.651307403888545 8:0.150842410414834 9:0.299086301532292 10:0.119853631628815 11:0.679536729606233 12:0.256345378712698 13:0.327417061658918 14:0.151981003237877 15:0.709688272115387 16:0.356229696343412 17:0.506603141088937 18:0.361220886562812 19:0.750379271870487 20:0.603379982769127 21:0.269191113914746 22:0.136353110121948 23:0.688381443813598 24:0.281420560297476 
10.14392 10.14392 10.14392 10.14392 1:0.0662912607362388 2:0.0170499394767739 3:0.519766338925626 4:0.04840919470239 5:0.18592826029973 6:0.12013089866115 7:0.658999539532547 8:0.132947085172773 9:0.26383707822546 10:0.116266650767439 11:0.689855002000847 12:0.263571108120233 13:0.301889622172403 14:0.147111240156956 15:0.715675819343745 16:0.358480274317984 17:0.570686791890882 18:0.372952750161745 19:0.757816440398711 20:0.666317007885409 21:0.247138848312281 22:0.132765075659219 23:0.693999989139697 24:0.275378034460447 
10.14392 10.14392 10.14392 10.14392 1:0.0698771242968684 2:0.0223580765173301 3:0.569510641170531 4:0.081675392670157 5:0.18592826029973 6:0.12618148989539 7:0.651307403888545 8:0.150842410414834 9:0.299086301532292 10:0.119853631628815 11:0.679536729606233 12:0.256345378712698 13:0.327417061658918 14:0.151981003237877 15:0.709688272115387 16:0.356229696343412 17:0.506603141088937 18:0.361220886562812 19:0.750379271870487 20:0.603379982769127 21:0.269191113914746 22:0.136353110121948 23:0.688381443813598 24:0.281420560297476 
0 10.14392 10.14392 10.14392 1:0.0494105884401309 2:0.0221191383751669 3:0.641152321755349 4:0.149805447470817 5:0.226975807618617 6:0.140153651397121 7:0.689409419093684 8:0.219229707202831 9:0.137240365124156 10:0.0894629180150342 11:0.632093371482303 12:0.141193904555204 13:0.170490186007546 14:0.11174500215333 15:0.699772679399039 16:0.299748942218946 17:0.569317079444162 18:0.344815701621112 19:0.749332518475119 20:0.590758043337078 21:0.215750915368958 22:0.130678913071946 23:0.710774066701868 24:0.341160748377243 
10.14392 10.14392 0 0 1:0.0883883476483184 2:0.0373760749474173 3:0.64081331249214 4:0.169546788392566 5:0.246718642848664 6:0.152645175755188 7:0.684632377119366 8:0.281234323266781 9:0.315547746154578 10:0.157014146037085 11:0.683646435562977 12:0.296569685426309 13:0.379840773859329 14:0.187159072884272 15:0.71699314618314 16:0.4150269560866 17:0.50747820165767 18:0.360581676583969 19:0.760830628319552 20:0.68710234445256 21:0.240485790120657 22:0.157411464470742 23:0.722371318749994 24:0.438932934560479 
10.14392 10.14392 0 0 1:0.0494105884401309 2:0.023537607737066 3:0.646118287117251 4:0.184931506849315 5:0.199256567061774 6:0.127089814125561 7:0.621921604201713 8:0.172148810577434 9:0.245478966463705 10:0.129091164573953 11:0.679451570102056 12:0.303639669798515 13:0.294705939740537 14:0.158959176375937 15:0.704700492861399 16:0.384911668124402 17:0.520795122536271 18:0.326054649567671 19:0.737466191446893 20:0.529141526471972 21:0.19961166510341 22:0.130843129690815 23:0.681173001967395 24:0.31037315184229 
10.14392 10.14392 10.14392 10.14392 1:0.0662912607362388 2:0.0203749427043133 3:0.587126020648996 4:0.099231502776687 5:0.20207953451638 6:0.12077209400834 7:0.641515844917728 8:0.150721166380878 9:0.21790212320723 10:0.119778231822165 11:0.689142576466394 12:0.296855566917911 13:0.266891280102479 14:0.142750152194744 15:0.710317805295136 16:0.371538348832721 17:0.49232358369016 18:0.301451499486634 19:0.733320748931938 20:0.486863461148306 21:0.236857665376202 22:0.130762383711579 23:0.681229352928047 24:0.273780628080953 
10.14392 10.14392 10.14392 10.14392 1:0.0441941738241592 2:0.0204148767893263 3:0.619922270717715 4:0.139521758502896 5:0.207010786586585 6:0.118249908120646 7:0.625365531781811 8:0.148523233470299 9:0.181253834446348 10:0.112026397058526 11:0.678914625460805 12:0.284460081151788 13:0.227126813258118 14:0.125560456833375 15:0.683565053731044 16:0.298199011012157 17:0.455295283301928 18:0.271721247952154 19:0.721383286884695 20:0.424705840447384 21:0.211018371227755 22:0.126456640899296 23:0.668846814521684 24:0.259301371824861 
10.14392 10.14392 10.14392 0 1:0.0662912607362388 2:0.0228350230724245 3:0.613908867141513 4:0.127423312883436 5:0.204550599936495 6:0.126746764599808 7:0.644936565007087 8:0.1621195269588 9:0.263828178168288 10:0.125837391624592 11:0.691268421456906 12:0.306402670307996 13:0.323406241307271 14:0.148552974000576 15:0.69971784120202 16:0.334726386029869 17:0.480569629495178 18:0.308097689059313 19:0.73987817287916 20:0.532212887279172 21:0.211326867967362 22:0.128571070021511 23:0.686964695439038 24:0.293440506869545 
10.14392 10.14392 10.14392 10.14392 1:0.0625 2:0.0222289399192128 3:0.62155492383274 4:0.127391169475752 5:0.22534110350828 6:0.122009899707533 7:0.65997869743351 8:0.15616948784578 9:0.200788854870145 10:0.115384963456103 11:0.685547722829327 12:0.256816899447432 13:0.245754101636329 14:0.129657557263302 15:0.711729048270335 16:0.347741656122864 17:0.50747820165767 18:0.335220110532947 19:0.741667059011124 20:0.531798061374137 21:0.157596902405287 22:0.110231705890859 23:0.679233800183385 24:0.238060596848008 
10.14392 0 0 0 1:0.0698771242968684 2:0.0324771024674653 3:0.663911474923743 4:0.211016002977298 5:0.197360495744647 6:0.136382005471004 7:0.667007247206875 8:0.225148825014708 9:0.249720049041467 10:0.141928841107917 11:0.704090064293394 12:0.358379028291403 13:0.294395119719461 14:0.166493024006872 15:0.707323881256488 16:0.370882840613709 17:0.453697395161476 18:0.321752850971387 19:0.74368575338793 20:0.554557314322638 21:0.230884858399597 22:0.144991800382689 23:0.706180627195072 24:0.366659742125388 
10.14392 10.14392 10.14392 10.14392 1:0.0625 2:0.0269035506611901 3:0.656662650674627 4:0.190440204043076 5:0.181104318978819 6:0.124862133906576 7:0.663251993979785 8:0.195400773625618 9:0.249720049041467 10:0.13473442124548 11:0.701364899592338 12:0.336014669668241 13:0.300455499729121 14:0.159219551907081 15:0.702787240471371 16:0.341195870106995 17:0.527735074737665 18:0.391485613780581 19:0.767817845561927 20:0.757965865981526 21:0.195356721644533 22:0.126618458575693 23:0.685217151325159 24:0.283653997696041 
10.14392 0 0 0 1:0.0625 2:0.0253634408353232 3:0.639897397085123 4:0.157072220016602 5:0.221195653915044 6:0.125623099749436 7:0.660556791439878 8:0.173921151286388 9:0.238063518264438 10:0.128037392050256 11:0.687008762623797 12:0.277675030310503 13:0.240287952006809 14:0.133556861995549 15:0.690903500567045 16:0.289409085233978 17:0.485048904721083 18:0.295816963970211 19:0.734765551639875 20:0.495472969824976 21:0.18124981338538 22:0.119292881645139 23:0.674889164873481 24:0.245329994603023 
10.14392 10.14392 0 0 1:0.0662912607362388 2:0.024526974609717 3:0.637940669651988 4:0.15682096069869 5:0.197288218721507 6:0.121601501300211 7:0.662428932551775 8:0.188529323310808 9:0.216424977170037 10:0.120661925607568 11:0.689913295640527 12:0.294675308941119 13:0.269758952310669 14:0.145511794124867 15:0.699546385894681 16:0.326472939463219 17:0.449679734896021 18:0.32341491807042 19:0.741163936647567 20:0.54515692077442 21:0.212625558840296 22:0.128990581141599 23:0.68600924411566 24:0.282790762233207 
10.14392 10.14392 10.14392 10.14392 1:0.0494105884401309 2:0.019860369288224 3:0.609104938271605 4:0.122383590357838 5:0.20207953451638 6:0.125226402292644 7:0.654013887884719 8:0.183571513488881 9:0.21790212320723 10:0.118740847094762 11:0.68839628364764 12:0.298903732832197 13:0.269758952310669 14:0.146883219735493 15:0.707237374046943 16:0.363775562366111 17:0.443418041787528 18:0.306930185136767 19:0.735980294114401 20:0.512242481284378 21:0.234037211274261 22:0.123935729703036 23:0.682052399339857 24:0.280613210522995 
10.14392 10.14392 10.14392 10.14392 1:0.0796721798998873 2:0.02236905758633 3:0.629723482528121 4:0.134520276953511 5:0.172012137177944 6:0.121793009973787 7:0.68079597603161 8:0.180817997802586 9:0.143373361122827 10:0.0964057713904947 11:0.680044588564932 12:0.231060259144414 13:0.161436109314219 14:0.11321570916217 15:0.704938361451656 16:0.309927666964542 17:0.490567670641895 18:0.295631601018057 19:0.727479758491316 20:0.430386853363194 21:0.207609146386972 22:0.114571432857219 23:0.684082199288952 24:0.251511830385704 
10.14392 0 10.14392 0 1:0.0441941738241592 2:0.0217828604555877 3:0.673832239559041 4:0.207272727272727 5:0.187739331245809 6:0.123567940232044 7:0.678882305215522 8:0.175518294007784 9:0.150906629232837 10:0.108520184813108 11:0.690013665946901 12:0.259758557211912 13:0.194113530969651 14:0.123989264449946 15:0.705520221136662 16:0.312145984507517 17:0.471067585197164 18:0.32117731092811 19:0.736487359221103 20:0.488190682656784 21:0.180511188150035 22:0.117114236945145 23:0.695278192154812 24:0.275082723951844 
10.14392 10.14392 10.14392 10.14392 1:0.0796721798998873 2:0.0260148638885315 3:0.61998045809991 4:0.119805450253916 5:0.198811205502072 6:0.123452255479805 7:0.665990353703231 8:0.149059200817346 9:0.231586060401831 10:0.117631138686829 11:0.685062408427759 12:0.249289673945439 13:0.208363513793741 14:0.115091814718088 15:0.686848569959127 16:0.253726272029101 17:0.465204145564673 18:0.27390170594007 19:0.732223466498676 20:0.461021661532052 21:0.200699128363053 22:0.104694736040289 23:0.667724877197629 24:0.20309601211853 
10.14392 10.14392 10.14392 10.14392 1:0.0625 2:0.018438405654292 3:0.557797587444872 4:0.077516643130926 5:0.197288218721507 6:0.128225330639822 7:0.64245908524154 8:0.157163871550746 9:0.194052568874447 10:0.110993285896097 11:0.668679188958617 12:0.243838762463572 13:0.245754101636329 14:0.138460746150548 15:0.700804627622796 16:0.338558600274521 17:0.445669478650026 18:0.311185988080127 19:0.745466024000126 20:0.566199803041908 21:0.1957128503797 22:0.119651452606777 23:0.679820480674949 24:0.272897551900553 
10.14392 10.14392 10.14392 10.14392 1:0.0441941738241592 2:0.0169316918020718 3:0.570980523946313 4:0.0832025117739403 5:0.162962743935101 6:0.119354205362822 7:0.638832913263248 8:0.128606278099232 9:0.169373005008687 10:0.104635563157227 11:0.668925860051411 12:0.230863129673523 13:0.216885141232006 14:0.136348052668012 15:0.705771204647796 16:0.342610992776991 17:0.478774141004738 18:0.327441467328145 19:0.748886877205823 20:0.593102374699334 21:0.200728682145004 22:0.117783756904523 23:0.67114023710281 24:0.23585714775807 
10.14392 10.14392 10.14392 10.14392 1:0.0662912607362388 2:0.0207636872519798 3:0.567936232457525 4:0.0838811464633185 5:0.207701356742629 6:0.127323554305838 7:0.650709795707625 8:0.159794129831187 9:0.194052568874447 10:0.108065123233842 11:0.666997487806618 12:0.231015063511978 13:0.240287952006809 14:0.1381502675637 15:0.705359103123593 16:0.346020996576216 17:0.492521380917565 18:0.343174827236136 19:0.749089067249409 20:0.597187821514308 21:0.24117120643649 22:0.125911626589748 23:0.679122675069908 24:0.2615964456869 
10.14392 10.14392 10.14392 10.14392 1:0.0494105884401309 2:0.0210502970901168 3:0.572193405790729 4:0.0881155613919895 5:0.206797565810559 6:0.128083000615333 7:0.640555589089322 8:0.155678458813684 9:0.24303440957701 10:0.122334246696387 11:0.675181496130688 12:0.26158467043288 13:0.282782914147197 14:0.154158447828195 15:0.71545284334699 16:0.397108027921168 17:0.476464233969671 18:0.306650035502873 19:0.737656402580721 20:0.514013028329041 21:0.236857665376202 22:0.13348418037403 23:0.693289862396188 24:0.314620109096131 
10.14392 10.14392 10.14392 10.14392 1:0.0662912607362388 2:0.0213048401046417 3:0.590702259728704 4:0.0990712074303406 5:0.207701356742629 6:0.123269041969256 7:0.652075859493699 8:0.155080611140025 9:0.214386730827454 10:0.116868246140126 11:0.683248842507975 12:0.268370603427611 13:0.266891280102479 14:0.141506174022142 15:0.702998811711446 16:0.332240783027537 17:0.38448497562644 18:0.273283859433375 19:0.725436864861423 20:0.430907627706111 21:0.24117120643649 22:0.130308088454637 23:0.689288175146841 24:0.285952364419137 
-10.14392 10.14392 10.14392 10.14392 1:0.0883883476483184 2:0.0345615438186789 3:0.694683237121354 4:0.28124073891139 5:0.302814792002668 6:0.167695976826803 7:0.712398602973203 8:0.328557913663216 9:0.181253834446348 10:0.0981060571194125 11:0.622535618142851 12:0.14284029059469 13:0.185725652478177 14:0.121695213805454 15:0.692044715182685 16:0.293019366530013 17:0.700528673221134 18:0.351660253633202 19:0.74263571065079 20:0.546210191240138 21:0.232605605057282 22:0.138874159900179 23:0.713629133512258 24:0.37218856641574 
-10.14392 0 0 0 1:0.139754248593737 2:0.0530755566788632 3:0.714956573870876 4:0.37515589922674 5:0.411093623824306 6:0.198154693898135 7:0.708154449864905 8:0.355949398041409 9:0.373604788102214 10:0.156016644416054 11:0.646893218635536 12:0.20817782659609 13:0.39606106269221 14:0.188823121098941 15:0.717048819555269 16:0.414106034071008 17:0.71112109224588 18:0.36842338542975 19:0.730987387642609 20:0.47721283773319 21:0.330252983851503 22:0.171887867320968 23:0.719289942128247 24:0.423928122791231 
-10.14392 0 0 0 1:0.154679608384557 2:0.0536417565630361 3:0.707171839526576 4:0.337822560825756 5:0.375623845312388 6:0.200642642443147 7:0.713225215511556 8:0.362555886805818 9:0.411272097397886 10:0.141701315779592 11:0.629595298313028 12:0.17062571858736 13:0.436689145483184 14:0.168429545364711 15:0.705033200804781 16:0.358213873784809 17:0.559246876906058 18:0.344834513021762 19:0.741215801835593 20:0.535292915097205 21:0.330252983851503 22:0.172207763530811 23:0.718538471307423 24:0.416987088850151 
-10.14392 10.14392 10.14392 0 1:0.0911086233569578 2:0.0341215121798053 3:0.679627730788847 4:0.244131455399061 5:0.327677696531215 6:0.172673145188179 7:0.707410999089793 8:0.331865804364274 9:0.200251962819921 10:0.100458033238343 11:0.619454766041536 12:0.150415970197746 13:0.195431335202294 14:0.122695458731572 15:0.689262396852918 16:0.298878579250745 17:0.623442663011859 18:0.326091561140875 19:0.723139412538177 20:0.426695869274743 21:0.226737389796681 22:0.139782712997134 23:0.705458165560733 24:0.354081992494942 
-10.14392 10.14392 10.14392 10.14392 1:0.0698771242968684 2:0.0289104910216535 3:0.670851321714205 4:0.212283218150997 5:0.27525475726177 6:0.148352125801675 7:0.685190187791351 8:0.2274965217938 9:0.158000628394803 10:0.0892140341962609 11:0.620694540341122 12:0.135856730104893 13:0.174460169897075 14:0.115437495549366 15:0.685698306041169 16:0.26822451129369 17:0.587361663398376 18:0.348531322876595 19:0.745497868431817 20:0.56542188464261 21:0.212793545068091 22:0.131757312008613 23:0.70219602962755 24:0.321898280143474 
-10.14392 10.14392 10.14392 10.14392 1:0.0796721798998873 2:0.0327134983024719 3:0.670681951526634 4:0.218000829531315 5:0.301031955078308 6:0.158159032694037 7:0.69521399301221 8:0.277509819311958 9:0.169550099120105 10:0.0971842151398349 11:0.614316407527961 12:0.13696176231637 13:0.203255252557697 14:0.124438665291009 15:0.687224563153694 16:0.284862212082793 17:0.559289023082487 18:0.353449623454142 19:0.74474889285659 20:0.561541479087665 21:0.222312211957388 22:0.137526923788809 23:0.70291665412429 24:0.33680278910091 
-10.14392 10.14392 10.14392 0 1:0.110485434560398 2:0.0387073136630374 3:0.654203648893108 4:0.19179917498149 5:0.259021157806177 6:0.16032685148211 7:0.69103116587877 8:0.29430481482423 9:0.259879176987819 10:0.138695716839137 11:0.663685445416468 12:0.241269058033437 13:0.317278305611654 14:0.168568754075771 15:0.712512173872959 16:0.392667313926509 17:0.648718256942185 18:0.356140091616532 19:0.751197353806965 20:0.611726551024113 21:0.269191113914746 22:0.154034649464183 23:0.715414899258067 24:0.404779714572897 
-10.14392 10.14392 10.14392 10.14392 1:0.110485434560398 2:0.0409920826600501 3:0.706457687558485 4:0.31703443190198 5:0.289082889586938 6:0.170409157667674 7:0.709694979745391 8:0.312754488519595 9:0.137789459124706 10:0.0873928608965777 11:0.60890234573949 12:0.121860002383808 13:0.124408810660243 14:0.0937828674958877 15:0.662541664376547 16:0.210801644197278 17:0.520795122536271 18:0.267109552062053 19:0.703718044451955 20:0.327618468447397 21:0.223112306122167 22:0.141107684315618 23:0.708526218508777 24:0.347755571832164 
-10.14392 10.14392 10.14392 10.14392 1:0.0796721798998873 2:0.0281652301376612 3:0.631970188446092 4:0.143954069951745 5:0.27525475726177 6:0.145366143197468 7:0.677852290845983 8:0.212177514583693 9:0.145387495082733 10:0.0940960044723306 11:0.630863278336915 12:0.153812494211234 13:0.162435629991326 14:0.0977293678081106 15:0.664747496716376 16:0.217484647484782 17:0.504354343361883 18:0.290412302695779 19:0.719060964714075 20:0.407761033369214 21:0.207609146386972 22:0.125473242663383 23:0.693436834583108 24:0.295505421314934 
-10.14392 10.14392 10.14392 10.14392 1:0.110485434560398 2:0.0365855542082753 3:0.65969667746804 4:0.194246853748143 5:0.27525475726177 6:0.162609035520066 7:0.712589440442895 8:0.303735440050757 9:0.139458134337834 10:0.0861657312409318 11:0.617207132798958 12:0.121831308909181 13:0.143891824783261 14:0.0942715896993185 15:0.67301091925113 16:0.222426217199905 17:0.422042166284894 18:0.265780004163484 19:0.731073805154787 20:0.472200958664411 21:0.217434398157372 22:0.137615277113827 23:0.709623173368342 24:0.338556909657959 
-10.14392 10.14392 10.14392 0 1:0.0662912607362388 2:0.0334579327330384 3:0.697112932802279 4:0.29311859443631 5:0.198811205502072 6:0.132244774344319 7:0.684511172408182 8:0.22831261979843 9:0.191893120043751 10:0.109108167416903 11:0.663132451067804 12:0.212504665504237 13:0.245754101636329 14:0.141535858874186 15:0.704246122039694 16:0.331593664874768 17:0.589828474799027 18:0.355526189869597 19:0.757327082141514 20:0.661830577259521 21:0.211018371227755 22:0.123718985776757 23:0.693870867754891 24:0.295093072121308 
-10.14392 10.14392 10.14392 10.14392 1:0.0625 2:0.0264523784028262 3:0.644604360940338 4:0.168099742046432 5:0.215379693096558 6:0.137462764688457 7:0.679391671495091 8:0.234716210911222 9:0.156352774482091 10:0.104644111656375 11:0.657303514282956 12:0.212355387103806 13:0.2112881228158 14:0.136670607186493 15:0.703092496580051 16:0.340762086394249 17:0.623442663011859 18:0.323842419038214 19:0.728259889425153 20:0.450696434143713 21:0.196011333743378 22:0.12374177358729 23:0.687572040196531 24:0.289074687320397 
0 10.14392 10.14392 10.14392 1:0.0625 2:0.0229711732247549 3:0.664424377705628 4:0.203250393192725 5:0.197050563537448 6:0.127077234184175 7:0.662976503899252 8:0.184781635775906 9:0.149515350506685 10:0.0952244242100735 11:0.640374310639418 12:0.175408638027627 13:0.203925930509923 14:0.129128250663606 15:0.694284898264176 16:0.305374914254666 17:0.559812205018998 18:0.324522942435909 19:0.748927722293658 20:0.588012995103667 21:0.21075290586194 22:0.118434007324427 23:0.678505539965486 24:0.258267266981514 
-10.14392 0 0 0 1:0.110485434560398 2:0.0491367272483119 3:0.739888008004926 4:0.518238348612091 5:0.307341329184557 6:0.170759504186071 7:0.703539782396108 8:0.341557109384689 9:0.286589679494608 10:0.159740992648565 11:0.688934873270057 12:0.312322696806975 13:0.33527188907806 14:0.191409942074714 15:0.721564647800178 16:0.435243436818476 17:0.574212445426378 18:0.349080103339909 19:0.743329892534659 20:0.554017077683481 21:0.239638180952953 22:0.153533320367364 23:0.713234291148132 24:0.399392314208907 
-10.14392 0 10.14392 0 1:0.0988211768802618 2:0.0478616795346464 3:0.725291699859221 4:0.415113224071062 5:0.325542731343685 6:0.173843823809309 7:0.717607646318257 8:0.341503515333733 9:0.232316169519425 10:0.112872365094586 11:0.645067265072313 12:0.174541278707536 13:0.141717240248164 14:0.0853074845227926 15:0.640345891195621 16:0.165613926263282 17:0.417172194082987 18:0.227752673535944 19:0.712090130378793 20:0.370677710045905 21:0.222312211957388 22:0.133015803991185 23:0.702847805538544 24:0.324278147958311 
-10.14392 0 0 0 1:0.132582521472478 2:0.0490470271427932 3:0.686841216366121 4:0.278551109425375 5:0.422929685496262 6:0.205378079772233 7:0.699717615804211 8:0.355519293180627 9:0.351394683723583 10:0.146589317325112 11:0.66053579138165 12:0.253474275464787 13:0.39606106269221 14:0.138293834456926 15:0.671470845673455 16:0.284676102482771 17:0.632374245480709 18:0.280144047402304 19:0.7168373995103 20:0.421718670633061 21:0.307006918777738 22:0.146185611996505 23:0.684011698098045 24:0.326513283252822 
-10.14392 0 0 10.14392 1:0.110485434560398 2:0.0441811301447427 3:0.707557985655493 4:0.323762877892248 5:0.409615190224699 6:0.179829482291273 7:0.713473883246726 8:0.319098352053651 9:0.202098895787419 10:0.112078289261587 11:0.655230105401093 12:0.190617356463236 13:0.137686411844691 14:0.0910350583269185 15:0.666856579133332 16:0.215270272896756 17:0.543606961815739 18:0.266010361703563 19:0.693740012708795 20:0.287997733577546 21:0.444276282534989 22:0.155331789161034 23:0.70291665412429 24:0.33680278910091 
-10.14392 0 10.14392 10.14392 1:0.0988211768802618 2:0.0408549895971228 3:0.702275050117128 4:0.302948336489045 5:0.361796949272213 6:0.174698296862612 7:0.710526642216666 8:0.307530402594435 9:0.187307204141534 10:0.110798420287256 11:0.657989886629635 12:0.19628103230152 13:0.150287837138848 14:0.0989118385619007 15:0.660118462865071 16:0.200224971878515 17:0.55814803300378 18:0.24885565915911 19:0.690780638687119 20:0.278517080690796 21:0.327026593820026 22:0.140396935983277 23:0.701936144388349 24:0.324624730505349 
-10.14392 0 0 0 1:0.0911086233569578 2:0.0372141676682041 3:0.690571481656834 4:0.281810418445773 5:0.301031955078308 6:0.15767160272573 7:0.679563527818646 8:0.262593676314702 9:0.304482874835275 10:0.140798537555128 11:0.676956601408599 12:0.263428237208052 13:0.277200218615024 14:0.135036009502485 15:0.692593081815498 16:0.309353207601429 17:0.451370093272374 18:0.2457776842975 19:0.718984042851292 20:0.406340767583333 21:0.240935461425251 22:0.120676620726064 23:0.676577030871958 24:0.26262282936752 
-10.14392 10.14392 10.14392 10.14392 1:0.0698771242968684 2:0.0273798241323935 3:0.640857629192509 4:0.159290759694392 5:0.243777754897853 6:0.148887288516855 7:0.694768622544115 8:0.270893734997151 9:0.128083184789108 10:0.0833698816251239 11:0.604175840784367 12:0.121532227340422 13:0.151174310306535 14:0.0976004461626442 15:0.65657917757754 16:0.204586211674354 17:0.587361663398376 18:0.260315422330823 19:0.70462848697983 20:0.336583278044105 21:0.201972703263232 22:0.128992838663275 23:0.70731283599772 24:0.350016899176019 
-10.14392 10.14392 10.14392 10.14392 1:0.0988211768802618 2:0.0429015448767843 3:0.684999989671868 4:0.264428470519799 5:0.272648527504052 6:0.161867631579625 7:0.704876673783528 8:0.313126379859878 9:0.159928917304213 10:0.0889316058970178 11:0.62012594918883 12:0.146272231576491 13:0.134128978424336 14:0.0904119346137066 15:0.646926724926492 16:0.189997463632255 17:0.495918683972502 18:0.233379578971738 19:0.680230451916927 20:0.26125989444158 21:0.212793545068091 22:0.138448606112198 23:0.712233346417746 24:0.374609629743612 
-10.14392 10.14392 10.14392 10.14392 1:0.0662912607362388 2:0.02402323757398 3:0.628035479947508 4:0.139969214982042 5:0.243777754897853 6:0.141427484637575 7:0.677244550032562 8:0.215923941230455 9:0.118228652296918 10:0.0835031413584887 11:0.615013414366226 12:0.133865632794708 13:0.14161680313059 14:0.106124380298676 15:0.675292312287533 16:0.246553354349761 17:0.531315766247498 18:0.341070967432089 19:0.739319220078973 20:0.531471978700903 21:0.239638180952953 22:0.126901306568811 23:0.700393679342132 24:0.322642231297953 
-10.14392 10.14392 10.14392 10.14392 1:0.0698771242968684 2:0.0263969607547033 3:0.647559103546599 4:0.171000554836323 5:0.199857129402828 6:0.138525051618042 7:0.6774691480001 8:0.22179223551885 9:0.122703093675266 10:0.0798377566181188 11:0.603975117974964 12:0.1225832698343 13:0.135109897624946 14:0.0989693721079637 15:0.668644869845388 16:0.233256331880705 17:0.531182090522852 18:0.296052908398444 19:0.724587297509019 20:0.433083367291317 21:0.200728682145004 22:0.125613968471439 23:0.696288299049243 24:0.311900301999311 
-10.14392 10.14392 10.14392 10.14392 1:0.0988211768802618 2:0.0353910314243323 3:0.624151554899014 4:0.136159600997506 5:0.309140826523978 6:0.165601195955334 7:0.698667177249812 8:0.286431282279155 9:0.196140649970953 10:0.102094838197193 11:0.638987271964423 12:0.173005147637908 13:0.174874237506569 14:0.106588125738284 15:0.6733493236917 16:0.244882351819644 17:0.506183373029922 18:0.308189413403254 19:0.726453509928075 20:0.449457717690263 21:0.226737389796681 22:0.145950327629504 23:0.706858470311229 24:0.349938449682434 
0 10.14392 10.14392 10.14392 1:0.0662912607362388 2:0.0190825729947053 3:0.570038537762865 4:0.0874370309447928 5:0.197050563537448 6:0.125810310783489 7:0.645607766102604 8:0.172363612954377 9:0.140390123299904 10:0.0966953754814579 11:0.649424552491286 12:0.207092500407433 13:0.211614677361427 14:0.132224943645568 15:0.690220341566088 16:0.31307251687113 17:0.456945143177434 18:0.275857131100358 19:0.728428768469806 20:0.462422586994038 21:0.219679065638722 22:0.131585859745989 23:0.693127939959219 24:0.322501121678721 
-10.14392 0 10.14392 10.14392 1:0.110485434560398 2:0.0408784228099729 3:0.682651600781582 4:0.242957746478873 5:0.377720840037961 6:0.172047753371751 7:0.705660322775949 8:0.29769633291705 9:0.211861214559781 10:0.111648344274907 11:0.637421811334688 12:0.162854755375469 13:0.143891824783261 14:0.0913036215614682 15:0.6517993218192 16:0.18836010702672 17:0.55241312871247 18:0.24956033586772 19:0.673421575161788 20:0.234424073948355 21:0.401113719582239 22:0.157331850890594 23:0.693839673747877 24:0.317862507947523 
-10.14392 0 0 0 1:0.0911086233569578 2:0.0429388863244491 3:0.712749230973978 4:0.371445258097848 5:0.283862889153247 6:0.163001276887287 7:0.672728156714834 8:0.269174343570499 9:0.340149472180549 10:0.145773233812737 11:0.666090192527865 12:0.262554597185352 13:0.323992099131079 14:0.142586058273036 15:0.66664151658804 16:0.264871964360805 17:0.421558315311316 18:0.247682743653192 19:0.701629485351157 20:0.352819266264116 21:0.369156681339626 22:0.173992746010733 23:0.704349628933047 24:0.391866331433408 
-10.14392 -10.14392 0 0 1:0.132582521472478 2:0.0528071654037373 3:0.73797438882982 4:0.506253722453842 5:0.370569251051035 6:0.202489204539777 7:0.721633549292521 8:0.409806882903527 9:0.353938440043036 10:0.159428788102761 11:0.689890619770271 12:0.315273950401822 13:0.316043809011353 14:0.144037839917475 15:0.675010748425794 16:0.273416018010085 17:0.487767598022129 18:0.267133580017414 19:0.716393529421659 20:0.403187580280344 21:0.279960515755576 22:0.146827076105972 23:0.691981201920811 24:0.322734804798833 
-10.14392 -10.14392 10.14392 0 1:0.0883883476483184 2:0.0392919589436363 3:0.71198550900502 4:0.358178580513864 5:0.285722204067227 6:0.15762861865345 7:0.693019641576834 8:0.291872053077225 9:0.253310120437419 10:0.148792329390865 11:0.700703704732823 12:0.349879626677806 13:0.247661478975257 14:0.127585388701985 15:0.643184658207354 16:0.201520645867406 17:0.607015597907659 18:0.366515084151905 19:0.735014900076135 20:0.512038936864679 21:0.223112306122167 22:0.137606577150044 23:0.703424162960462 24:0.360342754827983 
-10.14392 -10.14392 10.14392 0 1:0.0883883476483184 2:0.0387539891248249 3:0.708227185235507 4:0.343461482096625 5:0.285722204067227 6:0.156725043319971 7:0.689962726826798 8:0.286713758563698 9:0.253310120437419 10:0.147707345077519 11:0.697943635252124 12:0.341501786009104 13:0.247661478975257 14:0.127719361240904 15:0.642180047289785 16:0.200823787721478 17:0.607015597907659 18:0.364493018362519 19:0.733707834292966 20:0.504852149699728 21:0.223112306122167 22:0.137136786026643 23:0.703627567438455 24:0.36233692966475 
-10.14392 0 10.14392 0 1:0.110485434560398 2:0.0415432059749281 3:0.678413977989784 4:0.249067164179104 5:0.324271986717927 6:0.16004994127594 7:0.676782237474465 8:0.263094025269003 9:0.250188015842154 10:0.136612160566548 11:0.693140379495245 12:0.327936910200407 13:0.194944595139196 14:0.120036810509172 15:0.674050211899958 16:0.273354524198848 17:0.569317079444162 18:0.307402685385536 19:0.738267556204399 20:0.530507117431964 21:0.216481300239204 22:0.135675339568985 23:0.687365925234949 24:0.307177212204853 
-10.14392 -10.14392 10.14392 10.14392 1:0.11267347735825 2:0.0456902301868754 3:0.715485486441034 4:0.35327991987982 5:0.327948541148046 6:0.185722051188939 7:0.732159220516874 8:0.372542648183866 9:0.232985030883393 10:0.12543972465788 11:0.680774547849449 12:0.230861161934888 13:0.146469982829435 14:0.0862863751733828 15:0.654683061351617 16:0.16967011930783 17:0.450717631307395 18:0.22983619926517 19:0.713643753802264 20:0.382032949953373 21:0.281044731464449 22:0.13941112094131 23:0.702001904877936 24:0.319308045437296 
-10.14392 -10.14392 0 10.14392 1:0.0911086233569578 2:0.0510694621462753 3:0.738073460523156 4:0.503089259892205 5:0.332491993449458 6:0.193545260649497 7:0.725427836437446 8:0.401806619785971 9:0.259945741423887 10:0.135552823865739 11:0.677598447746738 12:0.263686854340774 13:0.221090219138289 14:0.098157145594309 15:0.625757433934959 16:0.158204904324111 17:0.496639703708143 18:0.241147309606886 19:0.684141274874202 20:0.291915632858634 21:0.243474037067842 22:0.150896558329775 23:0.715496229390973 24:0.392911986838279 
-10.14392 -10.14392 10.14392 10.14392 1:0.110485434560398 2:0.0409495302522638 3:0.707010047928621 4:0.320411392405063 5:0.277642483934728 6:0.173669880574526 7:0.721282706222531 8:0.342994365244247 9:0.297475798821185 10:0.137104814267647 11:0.68367482491639 12:0.257211795570288 13:0.136377906264536 14:0.0881124240452207 15:0.642726760908359 16:0.161156821497642 17:0.412555946162562 18:0.215040320248651 19:0.702216019158366 20:0.327479087919436 21:0.184843687032733 22:0.130899715929751 23:0.711090549214803 24:0.346599349693035 
-10.14392 -10.14392 10.14392 10.14392 1:0.159344359799775 2:0.0545401996621477 3:0.711478698681943 4:0.355283307810107 5:0.306642661800282 6:0.194931121100579 7:0.729874971697795 8:0.390672213707029 9:0.291324045518924 10:0.134698022850147 11:0.679288730425331 12:0.246892094501571 13:0.124408810660243 14:0.0862037770638403 15:0.641925167746991 16:0.165004352065632 17:0.504403104741788 18:0.237548778798379 19:0.7199667948942 20:0.41410989896287 21:0.223112306122167 22:0.1484364571754 23:0.713175023169973 24:0.36120468939496 
-10.14392 -10.14392 10.14392 10.14392 1:0.0796721798998873 2:0.0353469460101935 3:0.71130874366091 4:0.359969303084081 5:0.255929080807708 6:0.147278708980614 7:0.662416509832554 8:0.224330038239221 9:0.213087078022129 10:0.105521397669664 11:0.634290314221065 12:0.187508679978987 13:0.147086302474391 14:0.0935935021436352 15:0.610001286231821 16:0.150809357443779 17:0.492601437573924 18:0.296346624166302 19:0.724161399856062 20:0.452778118274648 21:0.194882711634235 22:0.123985870797542 23:0.675906398992211 24:0.277322715715058 
-10.14392 0 10.14392 10.14392 1:0.0883883476483184 2:0.0336155342924517 3:0.673518307257714 4:0.232578294268269 5:0.301031955078308 6:0.150947768665761 7:0.677051921921138 8:0.24921728292933 9:0.227809356593899 10:0.108088766717858 11:0.641996061137971 12:0.194240271126318 13:0.139411294668105 14:0.0962642182691935 15:0.620847079893352 16:0.159555204791877 17:0.593709416327997 18:0.289620209082779 19:0.727408292741305 20:0.462032438007004 21:0.18815738654501 22:0.115437247208954 23:0.673125077744037 24:0.2622350828178 
-10.14392 0 10.14392 10.14392 1:0.0662912607362388 2:0.0265621322047746 3:0.635100622652851 4:0.154404285617414 5:0.232504708822215 6:0.140394004314174 7:0.679715425236863 8:0.240514313312028 9:0.177700427382438 10:0.0959447059692111 11:0.644595340149199 12:0.190023974665093 13:0.168510807790216 14:0.101012416332078 15:0.650096755923564 16:0.200477778937881 17:0.480406582864178 18:0.302591636228387 19:0.728700384709648 20:0.474026438013577 21:0.181910684065043 22:0.125467093505967 23:0.701496742815864 24:0.338026334357326 
-10.14392 -10.14392 10.14392 10.14392 1:0.0911086233569578 2:0.0427500581642338 3:0.699335007440476 4:0.296305811026049 5:0.302814792002668 6:0.163176333352312 7:0.699710012049354 8:0.279373170604842 9:0.265670210910393 10:0.119854237383877 11:0.662487106483132 12:0.212734926545949 13:0.143056670392996 14:0.0880773304929906 15:0.645085871529568 16:0.177288982135008 17:0.419592117708504 18:0.241013230262437 19:0.728182679568322 20:0.456966416610566 21:0.212793545068091 22:0.126606664985692 23:0.698031050581693 24:0.310845924357616 
-10.14392 -10.14392 0 0 1:0.0988211768802618 2:0.0426976373106191 3:0.698667689732143 4:0.322966254099228 5:0.306737552732386 6:0.165438447576598 7:0.665057712650367 8:0.29689980139823 9:0.45612970246568 10:0.210923472549968 11:0.706835468708538 12:0.421859123123939 13:0.253579842365463 14:0.136275790936152 15:0.646386722403736 16:0.246008286436138 17:0.529204867788529 18:0.299310504006517 19:0.718771835512769 20:0.443395580610835 21:0.241495194498695 22:0.138801811275201 23:0.661917455656185 24:0.280920476106516 
-10.14392 -10.14392 10.14392 0 1:0.0988211768802618 2:0.0436993373031913 3:0.679525789328035 4:0.258793969849246 5:0.298591088239308 6:0.176410868695519 7:0.702349247010526 8:0.357645702486211 9:0.244477396748488 10:0.132003336360502 11:0.661590907854207 12:0.258615731198773 13:0.280468338890995 14:0.135226257108888 15:0.65923747872424 16:0.24766973825138 17:0.470464120661842 18:0.294266941410772 19:0.736222829523935 20:0.5209614980644 21:0.269191113914746 22:0.158614585279515 23:0.709068264689664 24:0.39501205821749 
-10.14392 -10.14392 0 0 1:0.110485434560398 2:0.053841241070341 3:0.733499476865845 4:0.479006724201832 5:0.388930897137068 6:0.1866520694762 7:0.707304478544228 8:0.382822160798184 9:0.247173715823807 10:0.14404364142575 11:0.682196770738887 12:0.309492838122101 13:0.248787012781671 14:0.129058358506118 15:0.64499287888594 16:0.222783245662954 17:0.574766231606281 18:0.284624154091115 19:0.711670504492596 20:0.393143764101468 21:0.243474037067842 22:0.145408831286653 23:0.698458141678022 24:0.361776947818679 
-10.14392 -10.14392 10.14392 10.14392 1:0.110485434560398 2:0.0478923103818651 3:0.707700221486246 4:0.345882026883459 5:0.322096442453483 6:0.180496367627221 7:0.702023269420294 8:0.328158343713229 9:0.283500659802572 10:0.133151694341504 11:0.676817877788721 12:0.27260135610694 13:0.225820787633149 14:0.121910561159327 15:0.651383782725973 16:0.222208440510262 17:0.455487762499203 18:0.267675933573538 19:0.719446530270716 20:0.432777956322383 21:0.401113719582239 22:0.17650643399125 23:0.707970153840357 24:0.399290826224578 
-10.14392 0 10.14392 10.14392 1:0.0883883476483184 2:0.0349383665020383 3:0.663621490843617 4:0.200743494423792 5:0.27525475726177 6:0.149784715154849 7:0.680903894178264 8:0.228753179263785 9:0.238063518264438 10:0.105463175522897 11:0.647306222713736 12:0.186482782323761 13:0.124468795318972 14:0.089325080871136 15:0.630469056281346 16:0.157124003495568 17:0.478774141004738 18:0.278385698478216 19:0.729574932136538 20:0.474142592386212 21:0.201972703263232 22:0.125817181194389 23:0.691173570711701 24:0.293553064365788 
-10.14392 -10.14392 10.14392 10.14392 1:0.118996454779124 2:0.0482155161850229 3:0.699705780897158 4:0.311882765211851 5:0.341533240196358 6:0.173374442978513 7:0.692200942496718 8:0.297959231109505 9:0.320270976921986 10:0.131241076409013 11:0.668226320267667 12:0.25201039249749 13:0.149753883124515 14:0.0961390702844168 15:0.638967852888913 16:0.191428349240394 17:0.421558315311316 18:0.227733328716328 19:0.688900834864217 20:0.312543029862395 21:0.211018371227755 22:0.125330998089299 23:0.680494146560061 24:0.284635077461913 
-10.14392 -10.14392 10.14392 10.14392 1:0.110485434560398 2:0.0454364775929713 3:0.708749425651586 4:0.346254991721048 5:0.35507010780455 6:0.167739509165479 7:0.697789850154438 8:0.313866386030063 9:0.260102562259731 10:0.133381061044758 11:0.669903006419564 12:0.263295809734201 13:0.157536985324547 14:0.104319085345693 15:0.622642448535219 16:0.163410902362653 17:0.443498370936515 18:0.245790881381889 19:0.703822461206197 20:0.352440077520931 21:0.222312211957388 22:0.133796598166479 23:0.684978477008798 24:0.30509168175323 
-10.14392 -10.14392 0 0 1:0.110485434560398 2:0.043689798909626 3:0.702499584662782 4:0.325040416741513 5:0.370569251051035 6:0.168467328959972 7:0.687290051965492 8:0.293115549462147 9:0.290402984188751 10:0.145741028879764 11:0.69307047466021 12:0.32287452293523 13:0.301080242844292 14:0.134634553101367 15:0.657815054804879 16:0.234649852428227 17:0.504354343361883 18:0.268231664435634 19:0.710470624259106 20:0.387517003994817 21:0.318088132643888 22:0.150607192849619 23:0.695534933366152 24:0.336740954709872 
-10.14392 -10.14392 10.14392 10.14392 1:0.110485434560398 2:0.0461732594651882 3:0.693057744980466 4:0.295928259815802 5:0.325542731343685 6:0.168891016895781 7:0.682092183917423 8:0.292996980948983 9:0.288443389361315 10:0.133178629205081 11:0.658146732493303 12:0.24229042430911 13:0.185725652478177 14:0.109919430210348 15:0.625976046863255 16:0.183399866626102 17:0.481473954523815 18:0.270740897209712 19:0.708161377973294 20:0.384232285713404 21:0.224179099865346 22:0.129784689017454 23:0.678868932220692 24:0.295801208045189 
-10.14392 0 10.14392 10.14392 1:0.0698771242968684 2:0.0273560165321703 3:0.638923051683034 4:0.162539639700425 5:0.243777754897853 6:0.147572356625547 7:0.675724328422661 8:0.238910345222841 9:0.121996154679767 10:0.0853299683066357 11:0.616518160328968 12:0.149868340284431 13:0.134616998991942 14:0.0963972918919219 15:0.629763430014984 16:0.169658008802299 17:0.540561204568377 18:0.299919970901027 19:0.74192440215803 20:0.541919924541576 21:0.194882711634235 22:0.128087776900822 23:0.693839673747877 24:0.317862507947523 
-10.14392 -10.14392 -10.14392 10.14392 1:0.15625 2:0.0484012050621378 3:0.732321847582126 4:0.452663774094886 5:0.418131153221455 6:0.229019187527189 7:0.749475683889583 8:0.467088371279566 9:0.42367347119793 10:0.147078661031497 11:0.685696692537414 12:0.261155050028515 13:0.353079142116462 14:0.122407640220267 15:0.687179199228871 16:0.245771141714427 17:0.47781774888752 18:0.218025198217359 19:0.682660426066886 20:0.251430304752921 21:0.392597129051527 22:0.169290114393659 23:0.727939518303866 24:0.409016456180634 
-10.14392 -10.14392 -10.14392 10.14392 1:0.172583765893551 2:0.064804239526666 3:0.752599822129539 4:0.629095674967235 5:0.418131153221455 6:0.225809723432464 7:0.748295401049858 8:0.473431573993789 9:0.49978596483128 10:0.206964185086386 11:0.728323514783175 12:0.434745252402645 13:0.692858394573951 14:0.214411475238666 15:0.724480706517147 16:0.39397272256579 17:0.455774330149687 18:0.270391348778796 19:0.670612039112509 20:0.221925001626314 21:0.335769785959429 22:0.16673162072012 23:0.72808353751606 24:0.420397044500911 
-10.14392 -10.14392 -10.14392 10.14392 1:0.110485434560398 2:0.0513257852732989 3:0.735819873134887 4:0.473659995399126 5:0.388110598460435 6:0.194365403558847 7:0.730242037298001 8:0.375438370016567 9:0.211861214559781 10:0.129208810424331 11:0.693659617919484 12:0.266781289478306 13:0.205782514495752 14:0.10678507640768 15:0.682914872036023 16:0.235807663749072 17:0.551171251319984 18:0.258087890112413 19:0.703090174898138 20:0.317712503100704 21:0.196705297219184 22:0.1283369237843 23:0.703654279262501 24:0.311162692849326 
-10.14392 -10.14392 -10.14392 10.14392 1:0.132582521472478 2:0.0593788062878732 3:0.708534758575481 4:0.318195598132541 5:0.409615190224699 6:0.214206605825033 7:0.743533835289445 8:0.442785040652126 9:0.283500659802572 10:0.167440891988123 11:0.720185831173685 12:0.380358081480695 13:0.15935244568179 14:0.0970063565320653 15:0.669221508086545 16:0.20921892573717 17:0.401739643564356 18:0.196665432861674 19:0.704058421346629 20:0.311247484870567 21:0.345227159699525 22:0.148308635053742 23:0.705143345788199 24:0.314573933417071 
-10.14392 -10.14392 0 0 1:0.15625 2:0.0516721397100117 3:0.697540871095864 4:0.286915015046176 5:0.360706290454966 6:0.188283257538428 7:0.725582379583331 8:0.370687802487815 9:0.272533067057865 10:0.142473179330963 11:0.693866904255755 12:0.290189192999771 13:0.154580361110895 14:0.0951807504725608 15:0.662627544687955 16:0.200116177751961 17:0.39911419786691 18:0.223648215265164 19:0.723226915455527 20:0.411559549807097 21:0.207609146386972 22:0.139826988286266 23:0.706633940696957 24:0.313487482270673 
-10.14392 -10.14392 0 0 1:0.139754248593737 2:0.0513606578644474 3:0.699923317813309 4:0.299395677558128 5:0.378654643536211 6:0.180109960939699 7:0.717605874957548 8:0.333099659088626 9:0.240675052573016 10:0.129395764092852 11:0.696131273968871 12:0.29580476363084 13:0.182891040679735 14:0.108689611903544 15:0.687726992851605 16:0.26859866112193 17:0.566584523241681 18:0.28507937463597 19:0.720492207362319 20:0.41856418807114 21:0.212793545068091 22:0.139224742248878 23:0.706534486440996 24:0.332405737704917 
-10.14392 -10.14392 -10.14392 10.14392 1:0.110485434560398 2:0.042359049844519 3:0.709981033819956 4:0.293813306128398 5:0.380612381742851 6:0.194284236570676 7:0.745578966344468 8:0.389831509541836 9:0.296754943670494 10:0.139138917227052 11:0.716394302929086 12:0.313656056253284 13:0.342419483007636 14:0.141683005951364 15:0.714321911858506 16:0.302262157362412 17:0.599227568067603 18:0.251685346823557 19:0.713735076939948 20:0.321937299152601 21:0.451157821527527 22:0.169148994197731 23:0.730347755759578 24:0.379358100277899 
-10.14392 -10.14392 -10.14392 10.14392 1:0.11267347735825 2:0.0512473911385959 3:0.736884026887711 4:0.46906675987417 5:0.422879106953256 6:0.207673129614298 7:0.739724550294811 8:0.389419349864871 9:0.537454016017989 10:0.171329383927435 11:0.702666182495866 12:0.304563762347225 13:0.175739675519346 14:0.107529970122104 15:0.697399493072931 16:0.263251698998731 17:0.57542757100436 18:0.245829987720718 19:0.695104554031239 20:0.289408860559735 21:0.26200329876022 22:0.149970815241304 23:0.715029132668576 24:0.33079900265601 
-10.14392 -10.14392 -10.14392 10.14392 1:0.132582521472478 2:0.075348435029822 3:0.734182256298958 4:0.436885170543348 5:0.448492475716028 6:0.255811036553568 7:0.766268346649253 8:0.548935538956594 9:0.342472865660717 10:0.181259965666788 11:0.726113573083624 12:0.342262001263183 13:0.157329809678079 14:0.111857286029104 15:0.717920025300582 16:0.297790164330318 17:0.627203119556599 18:0.253924266154643 19:0.707064037571309 20:0.315510535381768 21:0.453632886433153 22:0.181938179235272 23:0.736627920620025 24:0.448586371934672 
-10.14392 -10.14392 -10.14392 10.14392 1:0.15625 2:0.0724897592379935 3:0.752749009437575 4:0.627315812149935 5:0.422929685496262 6:0.248081814493957 7:0.764733397589191 8:0.541906346691619 9:0.342472865660717 10:0.174682785960373 11:0.720587220277098 12:0.327192745398312 13:0.157329809678079 14:0.109525296105898 15:0.709667926646484 16:0.275903541828095 17:0.455774330149687 18:0.184040405412855 19:0.685408390434998 20:0.232054376171552 21:0.227605450045944 22:0.163888239101821 23:0.738591601208059 24:0.443702009398686 
-10.14392 -10.14392 -10.14392 10.14392 1:0.208463501001974 2:0.0697992077235899 3:0.711221384670256 4:0.336025656253712 5:0.41873867435153 6:0.215130998742909 7:0.750430739512959 8:0.433953293431925 9:0.318904825896983 10:0.139138141128112 11:0.708141625640306 12:0.287501116559399 13:0.170277900901338 14:0.10036760235938 15:0.691427559775933 16:0.232996646461646 17:0.450894568789822 18:0.190685164215003 19:0.693488393717723 20:0.260603619704483 21:0.24117120643649 22:0.152280847224061 23:0.720657844171416 24:0.345851815311365 
-10.14392 -10.14392 -10.14392 10.14392 1:0.128847050800552 2:0.0660054160958191 3:0.756553545271636 4:0.675871262616644 5:0.41873867435153 6:0.213418326379046 7:0.736323442435886 8:0.414585451520474 9:0.296754943670494 10:0.159091141722464 11:0.713883549100565 12:0.353680994216559 13:0.154580361110895 14:0.0970392771977408 15:0.662317531826216 16:0.199437051980017 17:0.450717631307395 18:0.223169918108124 19:0.70906770112616 20:0.359220565615339 21:0.234659355893645 22:0.149878540833852 23:0.718845615079551 24:0.380453466274832 
-10.14392 -10.14392 -10.14392 10.14392 1:0.128847050800552 2:0.0526764533683753 3:0.742277762413963 4:0.528319772493878 5:0.41873867435153 6:0.207679419174768 7:0.735123583514073 8:0.399932077394037 9:0.250200518174908 10:0.148848449207818 11:0.701653968941418 12:0.305123829846208 13:0.149059494853192 14:0.0938166345347636 15:0.667983429553151 16:0.20631720625049 17:0.424534402089357 18:0.201957508710063 19:0.652640277971581 20:0.176615956876535 21:0.352775579899445 22:0.149989159397541 23:0.706461107954604 24:0.353272516672615 
-10.14392 -10.14392 0 0 1:0.0988211768802618 2:0.0466635885586446 3:0.724175904781382 4:0.393960674157303 5:0.393375022395831 6:0.183729869209988 7:0.72575965059357 8:0.351042679986933 9:0.219315178699965 10:0.12099737322961 11:0.684109843433775 12:0.242299980252253 13:0.146469982829435 14:0.0945619686252931 15:0.67680235626998 16:0.221608890244724 17:0.390376059715317 18:0.230771164781861 19:0.722093340070137 20:0.393411542169749 21:0.415250458469287 22:0.1612043522044 23:0.71348217728957 24:0.366236608253179 
-10.14392 -10.14392 -10.14392 10.14392 1:0.15625 2:0.0583214786288748 3:0.73769776871747 4:0.492110747246204 5:0.409615190224699 6:0.228604668227396 7:0.752906284334139 8:0.471471531429696 9:0.518228803432831 10:0.175611688066164 11:0.697922450341381 12:0.301900147002777 13:0.2966357322237 14:0.11601562618398 15:0.687576620236025 16:0.232232517211036 17:0.449679734896021 18:0.214200060958456 19:0.657640851741849 20:0.18774939727785 21:0.335769785959429 22:0.165240117955267 23:0.732340896416743 24:0.419745337723002 
-10.14392 -10.14392 -10.14392 10.14392 1:0.15625 2:0.0591895135071267 3:0.716291096547221 4:0.369580100410771 5:0.41072078975883 6:0.229817749413869 7:0.747923628036339 8:0.471196933499929 9:0.416771057499289 10:0.186677928225452 11:0.714503308656741 12:0.366165650383637 13:0.252438039262524 14:0.113724045979627 15:0.682043922568629 16:0.242081480019809 17:0.449679734896021 18:0.221595210073646 19:0.642882592195614 20:0.165098124349423 21:0.279715292899585 22:0.164872959100403 23:0.725853697464492 24:0.40866385956054 
-10.14392 -10.14392 -10.14392 10.14392 1:0.118996454779124 2:0.0439968241438286 3:0.683531746031746 4:0.215642582585928 5:0.442631836633464 6:0.247345365477183 7:0.75871571817263 8:0.500310634344917 9:0.474624938295738 10:0.189106217979486 11:0.720462575602586 12:0.370817939244663 13:0.473280046446214 14:0.149878257061358 15:0.693816297891054 16:0.266297973588882 17:0.627203119556599 18:0.243561233977198 19:0.683528769520314 20:0.253867542701322 21:0.266326256403007 22:0.142764857312987 23:0.721779722427755 24:0.354249542872297 
-10.14392 -10.14392 -10.14392 10.14392 1:0.110485434560398 2:0.0424675558506032 3:0.714833339901846 4:0.332962447844228 5:0.418131153221455 6:0.243195367150721 7:0.754661312293396 8:0.486561109265643 9:0.416771057499289 10:0.177729756937253 11:0.718631252889248 12:0.364344028031252 13:0.281025471431171 14:0.141713400145427 15:0.715017757999921 16:0.331716234171731 17:0.518204650838253 18:0.2214684918883 19:0.673828241801485 20:0.225148799150764 21:0.266326256403007 22:0.144615734235458 23:0.711969999894916 24:0.317553669206478 
-10.14392 -10.14392 -10.14392 10.14392 1:0.172583765893551 2:0.0652416895162344 3:0.711868634083308 4:0.327088313198527 5:0.448492475716028 6:0.221993227861736 7:0.748693571817577 8:0.410342005463789 9:0.340149472180549 10:0.145854375815006 11:0.700519820201317 12:0.249769424710682 13:0.20647359766121 14:0.108537332737525 15:0.69984150011436 16:0.245515601863191 17:0.371935871864297 18:0.181503122180626 19:0.700217752662422 20:0.257517228564522 21:0.279715292899585 22:0.159966867054197 23:0.727086609500587 24:0.367160058839857 
-10.14392 -10.14392 -10.14392 10.14392 1:0.15625 2:0.0607979519946571 3:0.744310440727964 4:0.548953974895398 5:0.409615190224699 6:0.242458616959134 7:0.756680204019131 8:0.535318069339379 9:0.518228803432831 10:0.183044608118724 11:0.696592679118913 12:0.306446492330575 13:0.460313160723891 14:0.179356094328249 15:0.71277874924295 16:0.367200632980523 17:0.42220154385513 18:0.21742289606889 19:0.672381768211535 20:0.23321875653819 21:0.377288288735864 22:0.172422253634082 23:0.717575685181748 24:0.387644114297137 
-10.14392 0 0 -10.14392 1:0.0796721798998873 2:0.034546756656514 3:0.693802701035168 4:0.284478323902165 5:0.253214271876378 6:0.152191533961269 7:0.685117376484952 8:0.25363145048963 9:0.238063518264438 10:0.108398594483048 11:0.650027757245674 12:0.198975653129277 13:0.146469982829435 14:0.096528671257879 15:0.64965288548004 16:0.198170030031716 17:0.462876847856551 18:0.266046394403334 19:0.718304534810434 20:0.404197495954883 21:0.191995567624063 22:0.124118839481756 23:0.673657600675251 24:0.251948014675283 
-10.14392 -10.14392 0 -10.14392 1:0.0698771242968684 2:0.0298263292589787 3:0.688666494119 4:0.268271711092003 5:0.212656323004723 6:0.132297228720004 7:0.666488217688697 8:0.203268276490525 9:0.227809356593899 10:0.114776926452874 11:0.669008141961257 12:0.240329909758555 13:0.208363513793741 14:0.114055139537865 15:0.660130602013455 16:0.219892362840762 17:0.54297100559036 18:0.326671423582414 19:0.738533042613747 20:0.524747525247475 21:0.157874195107661 22:0.106834409122596 23:0.647638761488617 24:0.194148316418653 
-10.14392 -10.14392 0 -10.14392 1:0.0988211768802618 2:0.0342589620361001 3:0.680318577118187 4:0.24670830519919 5:0.217343222701135 6:0.141642649530673 7:0.672006639074731 8:0.224426493962471 9:0.288443389361315 10:0.12219238256924 11:0.679092609162278 12:0.270619584231724 13:0.168559077530811 14:0.108906466625148 15:0.675207037130935 16:0.260458020007182 17:0.454539090969497 18:0.253233939420606 19:0.693344219753602 20:0.314773387718254 21:0.16802539463871 22:0.113602300807778 23:0.662195363655498 24:0.228866419355897 
-10.14392 -10.14392 -10.14392 -10.14392 1:0.110485434560398 2:0.0431077076554767 3:0.696217707798155 4:0.295619593875757 5:0.370569251051035 6:0.166828963619549 7:0.665364015239041 8:0.231493843949697 9:0.291324045518924 10:0.149603843045335 11:0.698873307168038 12:0.33301635225754 13:0.301080242844292 14:0.155479294714511 15:0.703273967754124 16:0.362034065261137 17:0.485991772040246 18:0.299658671838764 19:0.729343958367197 20:0.474115287343934 21:0.345227159699525 22:0.13275411164048 23:0.640310306042265 24:0.198725351811454 
-10.14392 -10.14392 -10.14392 0 1:0.139754248593737 2:0.0558551486230476 3:0.688814239100879 4:0.279188025425467 5:0.364427326830106 6:0.219351331894952 7:0.740077778891173 8:0.490337549081102 9:0.349779009730579 10:0.164462181428124 11:0.693707614841568 12:0.337488697243378 13:0.378004718932989 14:0.166350161061169 15:0.703965331766785 16:0.373524542175274 17:0.50747820165767 18:0.264820983948564 19:0.714594889157734 20:0.398680522849577 21:0.251960674285416 22:0.153524554304037 23:0.687992859936562 24:0.309072729436971 
-10.14392 -10.14392 -10.14392 -10.14392 1:0.128847050800552 2:0.0579895427287436 3:0.725016690193493 4:0.426561919422475 5:0.424391861056313 6:0.184346082209997 7:0.694920810794334 8:0.306609522928007 9:0.33616671911719 10:0.155231670299418 11:0.697525527913306 12:0.336376665686517 13:0.358800964628024 14:0.157827146281474 15:0.708602112433538 16:0.377095697555263 17:0.695613931701837 18:0.317975064609649 19:0.721904195866227 20:0.438503601125453 21:0.242773560987346 22:0.125050451500426 23:0.642034258315152 24:0.197086406554787 
-10.14392 -10.14392 -10.14392 -10.14392 1:0.134411332297541 2:0.0533983537802742 3:0.724582436294631 4:0.423761321257325 5:0.419276703644673 6:0.204426814651216 7:0.711780986707532 8:0.382315910967368 9:0.361174478251397 10:0.18133042353298 11:0.704973855977649 12:0.373283723281617 13:0.431085842011906 14:0.184234700232818 15:0.717304597737844 16:0.415209335890907 17:0.714185624566011 18:0.413113182413255 19:0.75629811516278 20:0.652317113995313 21:0.292245729353935 22:0.155270811309864 23:0.707852718909372 24:0.378105837135869 
-10.14392 -10.14392 -10.14392 -10.14392 1:0.0988211768802618 2:0.0440003688169939 3:0.709757677825733 4:0.35627826245832 5:0.369084333098206 6:0.182424803321954 7:0.686812287255882 8:0.301259536977444 9:0.265670210910393 10:0.143715558120721 11:0.689346581914781 12:0.321600460564191 13:0.258341552998939 14:0.149214803820157 15:0.689152101553994 16:0.321873475158967 17:0.597556596690353 18:0.327111885698651 19:0.71382574282478 20:0.406025152355382 21:0.327623183082175 22:0.15389095422186 23:0.662479705017162 24:0.251202076070576 
-10.14392 -10.14392 -10.14392 -10.14392 1:0.154679608384557 2:0.0550157868172058 3:0.680153448928154 4:0.262775238886581 5:0.322720116415218 6:0.17176646714726 7:0.677384745068746 8:0.286865762544119 9:0.361174478251397 10:0.172014217323903 11:0.692556293465012 12:0.343380538708049 13:0.476118264030158 14:0.202494908685145 15:0.708627386858348 16:0.406010958288401 17:0.648718256942185 18:0.351725361817436 19:0.724274344509047 20:0.455760713820503 21:0.270160269281629 22:0.14114263938452 23:0.656025728366937 24:0.244134376828942 
-10.14392 -10.14392 -10.14392 -10.14392 1:0.110485434560398 2:0.0410691831168435 3:0.69770824558653 4:0.296043988127098 5:0.306737552732386 6:0.154882342601 7:0.694642579876783 8:0.278173153723964 9:0.384468236733123 10:0.168227858596988 11:0.688456335564477 12:0.310857297522019 13:0.2112881228158 14:0.131071507784496 15:0.697053065764804 16:0.317873756958569 17:0.556321199292591 18:0.287090326962584 19:0.717319143221544 20:0.409110155593061 21:0.211018371227755 22:0.122765320518421 23:0.684036570913627 24:0.277020346149826 
0 0 0 -10.14392 1:0.0494105884401309 2:0.0202583367534181 3:0.583474309842926 4:0.096875 5:0.190655103515533 6:0.119185455381864 7:0.6380157556401 8:0.148555551944887 9:0.184747196621335 10:0.109000986741006 11:0.676571989359946 12:0.263837231347271 13:0.209244249471281 14:0.11886937277914 15:0.676631322731584 16:0.26421015273674 17:0.443418041787528 18:0.275367050069326 19:0.734485650075626 20:0.495968195626899 21:0.196284282340234 22:0.114130316797651 23:0.651605000406027 24:0.206265054816415 
-10.14392 -10.14392 -10.14392 0 1:0.134411332297541 2:0.0691533886555141 3:0.73797438882982 4:0.506253722453842 5:0.404999998286274 6:0.214355689886665 7:0.727133889445553 8:0.438084629130198 9:0.350324982677336 10:0.193946738900306 11:0.72112152119428 12:0.436222125350748 13:0.371099941642553 14:0.174599524379925 15:0.707387949890491 16:0.379660737870056 17:0.525919641152016 18:0.274011427083186 19:0.709210311033938 20:0.376962155568655 21:0.281044731464449 22:0.150318454305175 23:0.680913992998563 24:0.293438351029477 
-10.14392 -10.14392 -10.14392 -10.14392 1:0.0988211768802618 2:0.0465895168255244 3:0.717131935274303 4:0.391252024994214 5:0.380612381742851 6:0.169037579213754 7:0.683373725691051 8:0.30191962427524 9:0.277017527368995 10:0.158101823164076 11:0.697001324051935 12:0.352341192377225 13:0.452616647103351 14:0.185471347607804 15:0.689861791787143 16:0.340628601312757 17:0.492601437573924 18:0.272503758783815 19:0.720985136639833 20:0.437151352481148 21:0.350155177426745 22:0.16713935967911 23:0.694256952163769 24:0.355209892438507 
-10.14392 -10.14392 -10.14392 -10.14392 1:0.110485434560398 2:0.0520114628476696 3:0.716662403532352 4:0.388728994522328 5:0.256570915396211 6:0.148778865127366 7:0.660121004737397 8:0.22672003379564 9:0.301034992446808 10:0.173875395755397 11:0.702126397645725 12:0.369055926809574 13:0.267068383904445 14:0.151566730788301 15:0.684285665013775 16:0.305053926259863 17:0.557879569961641 18:0.31326992781683 19:0.72849636225688 20:0.471362434584011 21:0.204093682936971 22:0.121548297308115 23:0.642678095669517 24:0.207649382760404 
-10.14392 -10.14392 -10.14392 -10.14392 1:0.110485434560398 2:0.0336443938981576 3:0.652885608702266 4:0.194284580273864 5:0.259247049954167 6:0.133806278555896 7:0.629703994697707 8:0.169196505948952 9:0.393914034659856 10:0.16725497022592 11:0.690040980596574 12:0.343657579356005 13:0.245754101636329 14:0.135102085387665 15:0.680162327069054 16:0.296702026202931 17:0.465204145564673 18:0.286684061894885 19:0.7331155272022 20:0.49774539598778 21:0.159587586628725 22:0.106747574350039 23:0.61811238688163 24:0.169548715647823 
-10.14392 -10.14392 0 -10.14392 1:0.0988211768802618 2:0.0351762836277459 3:0.682651600781582 4:0.242957746478873 5:0.361796949272213 6:0.177265134198672 7:0.717964431229895 8:0.345687215307829 9:0.187307204141534 10:0.116978376958363 11:0.677497252326816 12:0.247447186245189 13:0.178477529329393 14:0.114622234027842 15:0.69179099382796 16:0.284965897235896 17:0.455275087174612 18:0.20014641388294 19:0.679427897396119 20:0.247085592099402 21:0.219889160220421 22:0.116741429718755 23:0.674085400451544 24:0.234344894026975 
-10.14392 -10.14392 -10.14392 -10.14392 1:0.0883883476483184 2:0.0294866748139494 3:0.62840205557291 4:0.15215415379022 5:0.312881320534404 6:0.166293717023808 7:0.700199209411456 8:0.321931535763337 9:0.232985030883393 10:0.145872167028456 11:0.700315524818088 12:0.344764747825638 13:0.269758952310669 14:0.12777398967158 15:0.672209084111784 16:0.261062968703522 17:0.460744990151303 18:0.233485963933459 19:0.69694467773016 20:0.329624661700104 21:0.215750915368958 22:0.12137193166356 23:0.635711025197678 24:0.1845541467796 
-10.14392 -10.14392 -10.14392 -10.14392 1:0.0883883476483184 2:0.0294866748139494 3:0.62840205557291 4:0.15215415379022 5:0.312881320534404 6:0.166293717023808 7:0.700199209411456 8:0.321931535763337 9:0.232985030883393 10:0.145872167028456 11:0.700315524818088 12:0.344764747825638 13:0.269758952310669 14:0.12777398967158 15:0.672209084111784 16:0.261062968703522 17:0.460744990151303 18:0.233485963933459 19:0.69694467773016 20:0.329624661700104 21:0.215750915368958 22:0.12137193166356 23:0.635711025197678 24:0.1845541467796 
-10.14392 -10.14392 -10.14392 -10.14392 1:0.132582521472478 2:0.0419214999318533 3:0.694198122384182 4:0.296842105263158 5:0.424391861056313 6:0.170625487273762 7:0.670686798776985 8:0.250855961335605 9:0.363672735409977 10:0.155402089090347 11:0.685745949711862 12:0.307403732870342 13:0.382719196294706 14:0.161408311883558 15:0.702459035535993 16:0.362617852295058 17:0.514379972598273 18:0.283379257969991 19:0.719509903882132 20:0.419216252868977 21:0.270202703350307 22:0.121018121900094 23:0.623072415739833 24:0.17302075423829 
