svm_type c_svc
kernel_type rbf
gamma 2.09744
nr_class 5
total_sv 83
rho -0.341967636233834 -1.49588894045311 -0.7600249039254 -0.00530681032196858 -1.13947187539973 -1.15691228624627 0.764300299793172 -0.0789813887944231 1.56257962466091 0.838673083266
label 1 2 3 4 5
probA -2.16715298369967 -2.46391904198437 -2.47987957391704 -2.69464175784082 -2.02889172528046 -2.33840508186852 -2.08113422154578 -2.60246219128219 -2.07777268979967 -2.32095658442596
probB -0.207552420315367 -0.152357585583486 -0.342958241531698 -0.247105453886236 -0.198510333011107 -0.110387112764479 0.0882916764431365 0.221253887855394 0.197590605232722 0.298617055023844
nr_sv 27 18 12 11 15
SV
0.943610774202801 0 0 1.5285885815236 1:0 2:0 3:0 4:0 5:0.356487764740154 6:0.267228098133807 7:0.713214956237983 8:0.393343608905491 9:0.336446331402009 10:0.168191724519778 11:0.725263347990544 12:0.44731957854526 13:0.349188742237492 14:0.164786745224133 15:0.681640955440334 16:0.274796506538605 17:0.649894272245405 18:0.447952525057427 19:0.746182009165458 20:0.552528984173103 21:0.530631924792288 22:0.207919968951692 23:0.698417408548927 24:0.320569929360471 
10.02471 6.76753890807857 1.68763281161909 2.09179804083109 1:0.110485434560398 2:0.0577512147914718 3:0.748119453218189 4:0.574151479685671 5:0.535116991097055 6:0.290199466939034 7:0.733877893004695 8:0.427632229159113 9:0.364643802117646 10:0.19644350988466 11:0.72445757812823 12:0.397059199562104 13:0.272228765686483 14:0.168944213809076 15:0.729279211937514 16:0.433295797962524 17:0.57603166661478 18:0.383626703475 19:0.747854861102448 20:0.520139273561763 21:0.497514835558967 22:0.232896568977068 23:0.743150910937878 24:0.469160944343599 
5.84817000748244 0 0 0 1:0.0494105884401309 2:0.0235438263980884 3:0.656662650674627 4:0.186752704498007 5:0.398484273096622 6:0.284208733302908 7:0.698965903729951 8:0.308392792064436 9:0.348764669850162 10:0.154163672266716 11:0.690566535183329 12:0.286416857805248 13:0.469417754413038 14:0.186620943424678 15:0.704565373964721 16:0.330192081323272 17:0.662793570021393 18:0.430648150710585 19:0.71064565535594 20:0.350835078269823 21:0.817305653189427 22:0.323548955789199 23:0.749837684501264 24:0.546056440852908 
1.05197730029266 1.94157516289248 0 1.20783255286554 1:0.0698771242968684 2:0.0234690378673905 3:0.617183164101917 4:0.131499126811483 5:0.468131266446473 6:0.280976271714264 7:0.713447803248833 8:0.372666090401147 9:0.414296899041456 10:0.165319117118817 11:0.714606393911232 12:0.378894875839639 13:0.400336665657388 14:0.190071119461006 15:0.704909110739716 16:0.334102423955156 17:0.622656826041178 18:0.441489566814995 19:0.745209877866368 20:0.526743856659307 21:0.723144480094003 22:0.276579980937479 23:0.727711180325909 24:0.425552431543658 
10.02471 5.18432845363077 5.50660710817005 2.57410466948545 1:0.0796721798998873 2:0.036204516253676 3:0.707293498215014 4:0.325896161573438 5:0.490081918335371 6:0.280617684558114 7:0.719685668221417 8:0.385654984684986 9:0.198634853417449 10:0.137817238646388 11:0.672592412316705 12:0.233162993175246 13:0.495501431245987 14:0.176645906629783 15:0.704221562785925 16:0.326174237351579 17:0.721569440579581 18:0.421106972677235 19:0.710384848525993 20:0.345589196648289 21:0.496350258184757 22:0.23748369058453 23:0.722484505460551 24:0.383821050425721 
0 1.96842173614766 0 3.77743864258039 1:0.0698771242968684 2:0.0276969953022731 3:0.609707030482905 4:0.112386417981827 5:0.462769238956697 6:0.245859504096851 7:0.710321880645652 8:0.330342681175502 9:0.354597943861669 10:0.181416679499096 11:0.723068997494424 12:0.402967147653993 13:0.336932427404953 14:0.164372921699817 15:0.70788461666971 16:0.328696648556112 17:0.549424260014594 18:0.357848706337433 19:0.744887336027524 20:0.504153515276739 21:0.402111359062972 22:0.20843173754104 23:0.707138989697915 24:0.312026439845535 
0 0 0 0.402714899286709 1:0.110485434560398 2:0.0659554267118321 3:0.757756067525149 4:0.669760883614359 5:0.448759415564674 6:0.304166400996522 7:0.663272903390466 8:0.25950371777148 9:0.520100035884967 10:0.262416255645505 11:0.713421010650564 12:0.407057525964695 13:0.613657777116816 14:0.323679209557271 15:0.750031126157991 16:0.60439146124706 17:0.726348328304546 18:0.516892168345443 19:0.708674691300712 20:0.394524360028759 21:0.839385095036632 22:0.320029954116282 23:0.72076732051145 24:0.440655525725889 
0 0 0 2.2783013437993 1:0.0662912607362388 2:0.0301983268064805 3:0.654899076331583 4:0.218996267109083 5:0.361403805520581 6:0.243294417836327 7:0.686671158931036 8:0.347505596250428 9:0.541657791074024 10:0.202400074543306 11:0.702247376834616 12:0.383626978387973 13:0.450726701443164 14:0.193011048394858 15:0.704216278549336 16:0.371702211412559 17:0.625454432105364 18:0.444761989204926 19:0.746119903582729 20:0.579445874425195 21:0.577117707484179 22:0.214202443986242 23:0.670136770775219 24:0.303849932089353 
0 0 0.300755275251726 0 1:0.125 2:0.0488215929544704 3:0.669499303198056 4:0.239268599395031 5:0.508691010345 6:0.298517759920401 7:0.700370154315216 8:0.357283717704572 9:0.577957737835071 10:0.239574790497871 11:0.724366495257065 12:0.451078511263544 13:0.684457423043484 14:0.276393245744328 15:0.734241998363974 16:0.497413695522747 17:0.683925640592031 18:0.493694895145481 19:0.73033524920618 20:0.478043573838746 21:0.691544930464312 22:0.298320948807471 23:0.725617600503299 24:0.453922926564059 
0.623454326929867 0 0 0.439237591811826 1:0.110485434560398 2:0.0494705503395422 3:0.759480990933015 4:0.697192415110981 5:0.42516537288404 6:0.262594756134437 7:0.669841087385143 8:0.240638640649796 9:0.436511066913127 10:0.203752124674144 11:0.691982514429167 12:0.303938520359922 13:0.495501431245987 14:0.265238803653772 15:0.739076395829374 16:0.517774930484748 17:0.71267306259762 18:0.484443396513063 19:0.716876774634147 20:0.393394002508231 21:0.875483705286552 22:0.294514802808438 23:0.712401275785049 24:0.371869510232981 
0 0 7.0033382071315 0 1:0.128847050800552 2:0.059637352990492 3:0.723070733658347 4:0.402826855123675 5:0.599036137745497 6:0.295115418833322 7:0.716185806093644 8:0.361679735953671 9:0.416844124759659 10:0.205936164748115 11:0.723073149577627 12:0.408037029298299 13:0.47839168348667 14:0.252197201954449 15:0.738952464159476 16:0.511387053113458 17:0.505573117178427 18:0.319072664007875 19:0.725247127285349 20:0.404240324506945 21:0.430687507884164 22:0.214739311662155 23:0.725069726029528 24:0.395953823820827 
0.446790796876646 0 2.45681350763605 4.39133265036425 1:0.132582521472478 2:0.0616625618425532 3:0.733118558789214 4:0.449637966879346 5:0.63800425082255 6:0.311194035928924 7:0.729167282540618 8:0.399330201941676 9:0.444434778698315 10:0.199940612297966 11:0.719723034076697 12:0.370847733785374 13:0.562735042819111 14:0.287941053471637 15:0.74594414702587 16:0.564060252824641 17:0.534819711729452 18:0.32731808003392 19:0.740308635012428 20:0.481368828574073 21:0.416387944644014 22:0.218894681765877 23:0.730946220582676 24:0.400514780438345 
0 5.75082744294123 0 9.91872219975821 1:0.0796721798998873 2:0.0312241491492506 3:0.719630102197649 4:0.388277979346916 5:0.344456134491423 6:0.21226939488188 7:0.695419165031604 8:0.283264530199112 9:0.225994656401935 10:0.140630241776038 11:0.696816659118693 12:0.298589306235466 13:0.446786675785265 14:0.167144388828537 15:0.703086388093716 16:0.317584650916712 17:0.551652712935255 18:0.369713204703968 19:0.75119448230616 20:0.55396549531601 21:0.371105108322642 22:0.17974239083136 23:0.684865214243908 24:0.245356110281752 
5.57933231815718 0 0 0 1:0.0988211768802618 2:0.0403305256225787 3:0.731830049937442 4:0.452507451082027 5:0.359002835892688 6:0.22683240399316 7:0.709596528169921 8:0.336761359953032 9:0.158036118312821 10:0.117817216755867 11:0.680390286379358 12:0.246788396894811 13:0.520696627104464 14:0.164424862036314 15:0.70054032699479 16:0.306672728663437 17:0.565108941108903 18:0.378697097831109 19:0.757646368607348 20:0.602902899743751 21:0.414701494098241 22:0.203215411815843 23:0.71285872156225 24:0.344419418067916 
0 0.191370374568481 0 0 1:0.118996454779124 2:0.0510371887461914 3:0.740592248744039 4:0.513248847926267 5:0.344456134491423 6:0.222889785582911 7:0.687577715061789 8:0.258580952582319 9:0.239593623051512 10:0.133463689342122 11:0.679031472108636 12:0.241389957538378 13:0.520696627104464 14:0.168402313859042 15:0.694665649661271 16:0.284780894611573 17:0.548432707299435 18:0.396652060018166 19:0.746292513313835 20:0.520737961020352 21:0.375092944135383 22:0.204657794249445 23:0.704781993227069 24:0.310688274230699 
3.05158374529739 0 0 0 1:0.0698771242968684 2:0.0317772051745035 3:0.692807508896061 4:0.263330474701105 5:0.356331910426537 6:0.24368132564829 7:0.724713727669474 8:0.406898291624416 9:0.192395531861762 10:0.126643906370646 11:0.703003946180813 12:0.297167808872057 13:0.520696627104464 14:0.177697352917231 15:0.717731218197206 16:0.3603823144794 17:0.596535562071763 18:0.446054089399359 19:0.741122792154643 20:0.493708501648326 21:0.561854675784542 22:0.257660110449638 23:0.718995893233418 24:0.374964688866542 
8.48012114929318 1.11263817223282 0 0 1:0.15625 2:0.0571461417310142 3:0.721253073469923 4:0.388034598750601 5:0.44884567218632 6:0.251970186611811 7:0.699297371385182 8:0.27654178943302 9:0.324562712757112 10:0.151658402938875 11:0.696955923303585 12:0.28407795788904 13:0.446786675785265 14:0.170220957128827 15:0.706629619558059 16:0.323619516538561 17:0.505573117178427 18:0.342608285327612 19:0.738558227273533 20:0.466888348636756 21:0.349317139651351 22:0.204154259747932 23:0.724642384926236 24:0.37396447117097 
0 0 0 0.705446103245289 1:0.0698771242968684 2:0.0327128112958917 3:0.707701344307655 4:0.339485568427253 5:0.314423989922467 6:0.214073825022403 7:0.708296526586052 8:0.322347920147925 9:0.331805678705401 10:0.204717512006048 11:0.73078741847608 12:0.45130243988228 13:0.553089355074538 14:0.250140307717555 15:0.719336609414257 16:0.395748814757395 17:0.586935431095219 18:0.42337456988873 19:0.756998917264219 20:0.599201445004278 21:0.482435333425372 22:0.193398317288614 23:0.688762237142217 24:0.261759701564916 
0 0 0 4.50497081404261 1:0.0441941738241592 2:0.0205678928934012 3:0.644604360940338 4:0.16414686825054 5:0.31205210191263 6:0.222352769491331 7:0.707741653824798 8:0.327258283969262 9:0.262566477672324 10:0.148692111187545 11:0.698317614995887 12:0.302011724871558 13:0.407975973433104 14:0.231131963494982 15:0.743136428101261 16:0.536670680846456 17:0.580777886699637 18:0.408472084622294 19:0.744647771599394 20:0.510120503465592 21:0.430192875126117 22:0.192165806310213 23:0.693941240340717 24:0.273207877001919 
0 0 0 2.28912376597571 1:0.0883883476483184 2:0.0302829589786556 3:0.669844642690386 4:0.217911877394636 5:0.31205210191263 6:0.22145143630616 7:0.703695323162601 8:0.316573070005249 9:0.440637506083157 10:0.183224718839377 11:0.704526450549418 12:0.331421380267043 13:0.520696627104464 14:0.23776922592164 15:0.725679013140127 16:0.426175161901405 17:0.587587752941533 18:0.430507860618757 19:0.753791996147653 20:0.575450707680854 21:0.424696211580233 22:0.19819529118335 23:0.69462395907826 24:0.280242749038295 
0 0 0 1.73145375453394 1:0.0883883476483184 2:0.0405868736884994 3:0.743368107763871 4:0.541871921182266 5:0.419649934924861 6:0.265344711647275 7:0.701911836373388 8:0.334259079301737 9:0.514881317404987 10:0.230807837077689 11:0.73709920055567 12:0.503758263457361 13:0.609619901975123 14:0.269341007051292 15:0.741543295817943 16:0.534231608001728 17:0.616290391255051 18:0.472612283764677 19:0.739373478381958 20:0.501206609281029 21:0.603145568158651 22:0.259657181159274 23:0.708274741526577 24:0.35399246091732 
0 0 0 3.13402726728159 1:0.0625 2:0.0290855247881952 3:0.707297408729441 4:0.352636391344102 5:0.438521053192189 6:0.273401102475557 7:0.687253677636344 8:0.306486352372084 9:0.375801300486445 10:0.178671875876575 11:0.703080873746869 12:0.355313235121114 13:0.507133776278764 14:0.219991747327478 15:0.70822647848547 16:0.366019975051337 17:0.726155797433033 18:0.473069722946556 19:0.736056735521909 20:0.499210071307587 21:0.847448643938426 22:0.271459651701711 23:0.687215064781898 24:0.304358688561393 
3.74241170794255 0 0 0 1:0.0662912607362388 2:0.0332629989783349 3:0.691424442781104 4:0.298567954606863 5:0.44677955771384 6:0.279612184137177 7:0.67403383230411 8:0.275396388039889 9:0.285137363612863 10:0.172150717398709 11:0.694021520688348 12:0.328070152093316 13:0.487799752745636 14:0.217314619712755 15:0.725487255862297 16:0.447877663532237 17:0.72833333981853 18:0.487556854692018 19:0.724784805085061 20:0.45008492102519 21:0.847448643938426 22:0.28130463663138 23:0.685747166175934 24:0.306351630581261 
10.02471 0 0 0 1:0.0494105884401309 2:0.0282294768348794 3:0.678413977989784 4:0.250814332247557 5:0.431624860643157 6:0.255445534493794 7:0.68928672465653 8:0.304728653040456 9:0.307812851756225 10:0.164099349460912 11:0.695074745879779 12:0.316650201243354 13:0.487799752745636 14:0.207142154758722 15:0.715944458833671 16:0.390767522700147 17:0.668986670085272 18:0.463731222102997 19:0.722735149353774 20:0.422284687095756 21:0.839385095036632 22:0.277646519323551 23:0.700928125063705 24:0.332948743572507 
0 0 0 10.02471 1:0.118996454779124 2:0.0484988959785032 3:0.716777964709623 4:0.366745080039015 5:0.599036137745497 6:0.260315524794766 7:0.70675808793943 8:0.318816653224093 9:0.423690829234495 10:0.197148251170288 11:0.717383368459205 12:0.378743038458921 13:0.487799752745636 14:0.189028379656152 15:0.710907324601281 16:0.34455002043384 17:0.524945337025517 18:0.333842995371803 19:0.747887972554847 20:0.526023456970368 21:0.312996316334386 22:0.174871561505049 23:0.702115682240928 24:0.293483191547272 
0 0 0 1.21233452052547 1:0.125 2:0.047282995407808 3:0.702795821066169 4:0.309539523785348 5:0.371943142608026 6:0.209134357394049 7:0.678382832494227 8:0.234718263872521 9:0.288759710746169 10:0.152334700259451 11:0.700826822724383 12:0.310909594223679 13:0.479152162105765 14:0.183077544124148 15:0.714353239965411 16:0.362803600926313 17:0.541319300957479 18:0.37285508211899 19:0.75152657029527 20:0.557846371347785 21:0.347188137992703 22:0.173455340381769 23:0.683449644830088 24:0.243687493263989 
3.59599098445924 6.69890465833971 0.737405385581835 5.89849846472926 1:0.154679608384557 2:0.0522438192564554 3:0.706101578000992 4:0.329726510150395 5:0.524974236645089 6:0.283946716877467 7:0.730623392938322 8:0.421623435114988 9:0.473130692882456 10:0.22857543691579 11:0.725865831771421 12:0.430086622646923 13:0.316029316747298 14:0.168189462513403 15:0.721862981556025 16:0.397808098344011 17:0.532194308422364 18:0.323401337688499 19:0.746217722142461 20:0.512920667697137 21:0.370739180436996 22:0.200244021324937 23:0.718853343750094 24:0.357639874490791 
0 0 0.77874657615792 0 1:0.139754248593737 2:0.0547261202743092 3:0.744070748474377 4:0.55430531319574 5:0.648112393845142 6:0.370960192380036 7:0.715961471472022 8:0.398395490779219 9:0.240035832255618 10:0.140591557510878 11:0.640765757342328 12:0.187909994549386 13:0.487799752745636 14:0.201729997956331 15:0.710153458825202 16:0.368473851126435 17:0.644687888331836 18:0.411881296981511 19:0.738590560685401 20:0.501102616877389 21:0.501114039355805 22:0.239116759582707 23:0.724246759509305 24:0.413062058261345 
0 1.12059949457131 0 0 1:0.0911086233569578 2:0.0399595356193735 3:0.710295157028348 4:0.35528028148648 5:0.650944901915967 6:0.326454161796978 7:0.744554768284395 8:0.519489192137405 9:0.254556213204337 10:0.155485044379219 11:0.683544994858784 12:0.263847902633012 13:0.287884117414125 14:0.161143217198047 15:0.707664758761434 16:0.341126646168126 17:0.551652712935255 18:0.352077559565557 19:0.739855758182855 20:0.499475669257914 21:0.66145190895494 22:0.270977666229067 23:0.72846828462035 24:0.44998435248803 
0 4.46502561306058 0 0 1:0.0988211768802618 2:0.0393337785989446 3:0.699135057658022 4:0.30883024381335 5:0.385139486040945 6:0.246676595991274 7:0.70898778342 8:0.360431575668196 9:0.192395531861762 10:0.111288318047012 11:0.645828730179639 12:0.182317820616029 13:0.444782453076524 14:0.151227124447249 15:0.695216184349501 16:0.299136612900313 17:0.571509952180649 18:0.372836124138069 19:0.734663551531676 20:0.470903675042416 21:0.496350258184757 22:0.228100353199537 23:0.717006932461937 24:0.381131714675747 
-7.41690901471042 0 0 0 1:0.0988211768802618 2:0.0398829950710183 3:0.703046850476091 4:0.329791508549489 5:0.488950306048227 6:0.307602797952302 7:0.699396111213838 8:0.337519777767922 9:0.240035832255618 10:0.140828385880658 11:0.647703818357966 12:0.201719016205274 13:0.487799752745636 14:0.205830887337658 15:0.717145947037348 16:0.40007375254596 17:0.726348328304546 18:0.435609429497148 19:0.715301358371384 20:0.396718957755365 21:0.847448643938426 22:0.314095454464929 23:0.720849908688544 24:0.417212099770035 
-2.63330878426206 0 0 0 1:0.110485434560398 2:0.0417274060367377 3:0.703417861173968 4:0.323603160334958 5:0.411727400910038 6:0.267310217370168 7:0.715616989154598 8:0.379789794679152 9:0.192395531861762 10:0.118147853845028 11:0.643185934045568 12:0.182804160232643 13:0.495501431245987 14:0.161790331446182 15:0.692936364375712 16:0.296475734688886 17:0.57779451043213 18:0.363390203970913 19:0.721343427736796 20:0.403929950738012 21:0.479393854146852 22:0.23710932270199 23:0.717638457421853 24:0.3895863511991 
-8.45417677447913 6.04607708698478 0 1.55799879742851 1:0.0796721798998873 2:0.0233198527392133 3:0.620361004780328 4:0.137781576216348 5:0.385615788375735 6:0.261387264239729 7:0.713447803248833 8:0.372666090401147 9:0.225576215488871 10:0.122239447767214 11:0.674457368729341 12:0.248264049583596 13:0.393675904348258 14:0.159232349975443 15:0.695254516618223 16:0.302952004155816 17:0.643287503661727 18:0.422803279408321 19:0.739855758182855 20:0.499475669257914 21:0.638555916534065 22:0.247925531078741 23:0.724029382615327 24:0.415821935885341 
-10.02471 0 0 4.13361028291661 1:0.110485434560398 2:0.0363906238533459 3:0.65608806726347 4:0.206727308422224 5:0.409927074025864 6:0.262334586459994 7:0.684251385008846 8:0.294525722823668 9:0.299674687950378 10:0.162159603080319 11:0.66165704120546 12:0.233800748335731 13:0.448122478115966 14:0.227498684654309 15:0.727013112414654 16:0.451720182544051 17:0.664679776001537 18:0.458651211584981 19:0.71927846797209 20:0.417876649756059 21:0.800858452663639 22:0.259435443943046 23:0.693882003031464 24:0.321712131987808 
0 9.67870884102557 0 0 1:0.110485434560398 2:0.0463041166594461 3:0.695391813064004 4:0.310901001112347 5:0.460508571491555 6:0.278085420492009 7:0.708472941004795 8:0.382207572839784 9:0.235468740735937 10:0.143876835863731 11:0.670178388698114 12:0.259108107147933 13:0.309446251654847 14:0.17442365097064 15:0.703326347309137 16:0.349506059744553 17:0.697638653315981 18:0.433402510527086 19:0.743067829475845 20:0.548156583160048 21:0.603145568158651 22:0.223368586352674 23:0.705390502433619 24:0.359319142692672 
0 0 0.0781764841011965 0.0425923521162959 1:0.148231765320393 2:0.0600154764626196 3:0.709757677825733 4:0.359787398355517 5:0.622818905545643 6:0.30412658861915 7:0.737804822577771 8:0.507938788110849 9:0.245639456214717 10:0.148492859388751 11:0.682639594975453 12:0.287925151042421 13:0.296943560416162 14:0.159825145830128 15:0.704581584711037 16:0.3508682544363 17:0.553147435248767 18:0.348079520714098 19:0.730617960691031 20:0.470803316200086 21:0.723144480094003 22:0.314053622733245 23:0.737486172410489 24:0.505223776641262 
0 0 0 3.4270441127868 1:0.139754248593737 2:0.0480593329540438 3:0.669174297248068 4:0.228638514876912 5:0.657912709170353 6:0.317332269261417 7:0.732967944624008 8:0.479184902353714 9:0.23251616942177 10:0.128276894448438 11:0.674714454954532 12:0.258162824028447 13:0.372813653938574 14:0.169064678799262 15:0.702935264564091 16:0.337975876436427 17:0.616290391255051 18:0.395766917725317 19:0.751942040876668 20:0.585655477371098 21:0.650690227208761 22:0.273857798270781 23:0.719532867460818 24:0.413180056142228 
-7.70056308198513 6.19381953072054 6.88764270797164 10.02471 1:0.148231765320393 2:0.0608869532115209 3:0.74862733221485 4:0.591338974614236 5:0.674826009213491 6:0.313511192244813 7:0.729262471127356 8:0.459505691768241 9:0.53338984811194 10:0.233222324854527 11:0.727318368698776 12:0.460550849639897 13:0.356407026115126 14:0.188827111685296 15:0.716700761238455 16:0.398023606917376 17:0.565462122360651 18:0.362766421216364 19:0.73122135078402 20:0.468354430379747 21:0.478863028793049 22:0.23796628222269 23:0.706859941515867 24:0.369538599177832 
0 0 6.52907137625114 0 1:0.110485434560398 2:0.0373688640843337 3:0.694232631520895 4:0.305646513856721 5:0.52689860335451 6:0.286857681628523 7:0.72271296372277 8:0.438781108214713 9:0.179172823780316 10:0.117443216830583 11:0.636786999895252 12:0.188171813823773 13:0.487799752745636 14:0.149297144791079 15:0.676728529047301 16:0.264071304181014 17:0.668986670085272 18:0.397700100358466 19:0.697593667246484 20:0.340461812488858 21:0.46939742774889 22:0.213036637958578 23:0.698164596347044 24:0.342217648059281 
-8.13935462035458 10.02471 0 4.34958844027245 1:0.110485434560398 2:0.0484338361511879 3:0.72079584030878 4:0.418493548243068 5:0.435257562323342 6:0.259092804542305 7:0.712321552629402 8:0.385206538261709 9:0.238025345165824 10:0.128359317518547 11:0.667041208365406 12:0.24508403571007 13:0.318343941092928 14:0.139212247202809 15:0.679814630781935 16:0.268826370964474 17:0.606452142630105 18:0.36745589824252 19:0.735513288312845 20:0.492697945616043 21:0.384465246780312 22:0.207384786405228 23:0.709822275844535 24:0.377410318966298 
-0.516455350450128 0 0 0 1:0.0911086233569578 2:0.0430343478512818 3:0.741221063996512 4:0.534329036288262 5:0.351420491902096 6:0.227222436439053 7:0.693930121905393 8:0.305360790369723 9:0.196572841339092 10:0.114654246256832 11:0.653750398679933 12:0.207776119562469 13:0.393675904348258 14:0.143291076164778 15:0.687859885033851 16:0.28502198724469 17:0.635354409187488 18:0.402056905454187 19:0.734359524039821 20:0.477073818481782 21:0.691544930464312 22:0.269119925631748 23:0.730488165978065 24:0.458082950148655 
-10.02471 0.524396703965961 0.289741616025505 0 1:0.139754248593737 2:0.0552744283140858 3:0.731525276955856 4:0.468884120171674 5:0.435257562323342 6:0.261526936425873 7:0.704777901169494 8:0.348150724762206 9:0.258454799111476 10:0.137126791754369 11:0.647866364025244 12:0.200918628235662 13:0.487799752745636 14:0.168269327021956 15:0.685059706896536 16:0.280798818241088 17:0.603841878898288 18:0.357579967550675 19:0.711186112231274 20:0.378645355967023 21:0.419943342469474 22:0.218308109604162 23:0.723599005746084 24:0.411992132888216 
-2.09659082142039 0 0 2.7247943562976 1:0.0698771242968684 2:0.0289220163125912 3:0.678210778016337 4:0.260661475819701 5:0.370273111663217 6:0.257685423449145 7:0.70011522470034 8:0.355031782809117 9:0.214524300432882 10:0.12535850079149 11:0.667359587077431 12:0.25424909884046 13:0.417731411000584 14:0.164271814314527 15:0.694366410097371 16:0.319564058417217 17:0.646683179094965 18:0.426415726507616 19:0.734285479090307 20:0.496048158170206 21:0.771766672436685 22:0.246717322585127 23:0.683730914447301 24:0.302006949138199 
0 3.40440696096571 3.8004731040562 2.89007050528006 1:0.139754248593737 2:0.0479082060552485 3:0.665899416872121 4:0.227724809657727 5:0.697352539323413 6:0.321495191266915 7:0.739851228893883 8:0.521130448086961 9:0.247960932057617 10:0.132328327617324 11:0.666418039433022 12:0.247948861576988 13:0.336932427404953 14:0.163267786562061 15:0.695720114680593 16:0.320789483624054 17:0.62855099280114 18:0.388268070311786 19:0.750465784804858 20:0.584241661947794 21:0.431966535154007 22:0.214243532434892 23:0.699367982696889 24:0.331209072433953 
-6.43079466327212 0 3.2004566859645 3.05578488468164 1:0.148231765320393 2:0.0735434255863826 3:0.73192405972085 4:0.471879506489345 5:0.687438281480253 6:0.318125899300033 7:0.727101523403539 8:0.443235298728983 9:0.322145278898163 10:0.184833610516886 11:0.717871167149369 12:0.408973182634026 13:0.326716781699684 14:0.180321254520124 15:0.723119403577456 16:0.428146236055967 17:0.514517855659023 18:0.348211881016655 19:0.742083217734043 20:0.520651142019249 21:0.530631924792288 22:0.244834664015404 23:0.717715460629798 24:0.410258077702014 
0 0 0 10.02471 1:0.0625 2:0.0212893391625217 3:0.595239619333846 4:0.119018591892716 5:0.344455901186099 6:0.248393660175749 7:0.712515984763681 8:0.39772530046298 9:0.251570135351104 10:0.142894249713583 11:0.694509073323606 12:0.328645183850823 13:0.259968645324294 14:0.125537769928969 15:0.634390594167642 16:0.177785055400906 17:0.606452142630105 18:0.423578402904655 19:0.739386961633225 20:0.52 21:0.496350258184757 22:0.211597145143695 23:0.659861069115964 24:0.237526434331105 
-0.026497453427691 0 0 10.02471 1:0.0625 2:0.0211182622611008 3:0.593164311115708 4:0.118055382778096 5:0.344455901186099 6:0.247894505767912 7:0.711417595987881 8:0.397483818884331 9:0.251570135351104 10:0.144478902187697 11:0.695948248493968 12:0.336448558670605 13:0.259968645324294 14:0.125186849576344 15:0.632451860366472 16:0.176685485071397 17:0.606452142630105 18:0.422540172839548 19:0.738378275088631 20:0.517873824424118 21:0.496350258184757 22:0.210755740210327 23:0.657957866047147 24:0.23776173007916 
-10.02471 -10.02471 5.301280558206 7.64668321901747 1:0.0911086233569578 2:0.0462713669581585 3:0.706121541945535 4:0.339038229001953 5:0.53251003574262 6:0.261413259954658 7:0.713219741124716 8:0.378911050153754 9:0.295632761119081 10:0.145955287318658 11:0.694705111748124 12:0.311457500279356 13:0.383133780420952 14:0.164719968350875 15:0.684678525281558 16:0.273408810772181 17:0.559930388484124 18:0.347121474218368 19:0.734681524352659 20:0.478754849436541 21:0.450665648867149 22:0.205761734754423 23:0.694455652978063 24:0.309335221565368 
0 -8.27327237204564 0 0 1:0.0796721798998873 2:0.0323309049043446 3:0.67352247626764 4:0.248518234432745 5:0.41211111504043 6:0.256914609108951 7:0.718938475879769 8:0.410951633880197 9:0.203562656833731 10:0.127101970514956 11:0.674944974461139 12:0.273237710850269 13:0.250481563779262 14:0.124453941215056 15:0.665240496703755 16:0.238975762628942 17:0.62855099280114 18:0.407107625339848 19:0.745995717598188 20:0.547105445617861 21:0.496350258184757 22:0.236310035172465 23:0.717116356461278 24:0.409314402519199 
0 0 0.223934258194665 0 1:0.128847050800552 2:0.0491351974555546 3:0.73573113998576 4:0.487855740922473 5:0.586120441844497 6:0.25515325377918 7:0.716812974759789 8:0.390300590484386 9:0.283300015942908 10:0.175300224943439 11:0.717861788375108 12:0.402982045874195 13:0.221228392879832 14:0.11506895876128 15:0.655015066434893 16:0.202051830484837 17:0.550858438864468 18:0.387514245335012 19:0.744794825358723 20:0.532611006800417 21:0.332136767337829 22:0.197643044992266 23:0.711201992176289 24:0.365271512467619 
-1.2315035561759 0 0 0 1:0.0883883476483184 2:0.0486819707238492 3:0.734013442970349 4:0.491170351734482 5:0.377769068644523 6:0.261689548177692 7:0.705980210065822 8:0.384806292382032 9:0.317096731942562 10:0.162949917929169 11:0.689440666652138 12:0.321095782160614 13:0.287884117414125 14:0.157946189803958 15:0.680327050721314 16:0.282193652125391 17:0.602341301232475 18:0.410829312347727 19:0.736429741327209 20:0.513931858798209 21:0.414701494098241 22:0.215883088875597 23:0.69264561228201 24:0.338957339619929 
-10.02471 -9.99850973963962 0 8.62778179701649 1:0.134411332297541 2:0.0598729533404382 3:0.740997298404727 4:0.535502033156084 5:0.461386541784636 6:0.28305898528446 7:0.701842149754249 8:0.377300172202609 9:0.380058466952791 10:0.176202404728896 11:0.694796318593064 12:0.343199567674964 13:0.287183730601241 14:0.1650946692884 15:0.692067245509728 16:0.321090943971351 17:0.646724920909364 18:0.39248652919686 19:0.730042857561378 20:0.489185573484041 21:0.391454281042461 22:0.220937927346122 23:0.682718713190894 24:0.317201081002119 
-4.03399244412036 0 0 1.70327912850105 1:0.148231765320393 2:0.0517671115879799 3:0.68332638131149 4:0.264269770408163 5:0.595492102673983 6:0.321867424553271 7:0.734683486429751 8:0.463581619410816 9:0.539459002965017 10:0.21075656923527 11:0.725865831771421 12:0.430086622646923 13:0.20530785508742 14:0.124893604522882 15:0.672751193944995 16:0.233342489817235 17:0.555586855449518 18:0.366572670520146 19:0.740815937421222 20:0.513458162265214 21:0.461622616313376 22:0.24599842879878 23:0.728625344746414 24:0.424044413545999 
0 -2.08418387989793 3.23774182321035 0 1:0.134411332297541 2:0.0589528584996299 3:0.699481272873199 4:0.318359963822731 5:0.622818905545643 6:0.321934597352515 7:0.72693568664089 8:0.448399195164631 9:0.479798096208561 10:0.174683765238344 11:0.680440647519454 12:0.275938084365944 13:0.235122443827053 14:0.132404622866784 15:0.661894217254115 16:0.222215128258711 17:0.593812990491915 18:0.355104020234406 19:0.733377113327664 20:0.477757862992324 21:0.501114039355805 22:0.258764927562248 23:0.72131978400289 24:0.407319304666058 
0 0 0.0445506838106378 0 1:0.148231765320393 2:0.0582219832637114 3:0.717044385012687 4:0.401159771507703 5:0.524974236645089 6:0.310453527517892 7:0.7241583647613 8:0.456009263768379 9:0.513622712295678 10:0.182156131607073 11:0.688253135031785 12:0.31655328087281 13:0.257583089859584 14:0.145787717734665 15:0.660789601174919 16:0.233223825963409 17:0.593812990491915 18:0.349951723324622 19:0.712353614680597 20:0.407205710027877 21:0.429263292073953 22:0.228613707255943 23:0.706927248982902 24:0.385738738915484 
0 -1.05235823971126 1.86616445520029 0 1:0.172583765893551 2:0.0816186167808026 3:0.756951117850303 4:0.668241965973535 5:0.589384188199605 6:0.326457628504873 7:0.738777236062313 8:0.483008069798595 9:0.505019621833506 10:0.188018726690959 11:0.723418002286423 12:0.426940121602296 13:0.228727660435081 14:0.122016112817199 15:0.652657965981 16:0.196417598492161 17:0.566776074814417 18:0.33819208767742 19:0.726622530654691 20:0.433710973521275 21:0.448315736991892 22:0.253737254584232 23:0.721790851654536 24:0.393873750739215 
-4.27419145510777 -10.02471 0 4.01691530199637 1:0.0911086233569578 2:0.032921876739852 3:0.662158583012551 4:0.215969265912159 5:0.391906185644059 6:0.281017846180226 7:0.722349835405371 8:0.428864512779166 9:0.168577012843317 10:0.119587410141742 11:0.664099838020532 12:0.237100740940066 13:0.306175790395713 14:0.140019372996163 15:0.671207288425464 16:0.245610170875419 17:0.595931715904831 18:0.389752837680911 19:0.743289718348018 20:0.533650793650793 21:0.638555916534065 22:0.266067261365739 23:0.716000705611157 24:0.398492235948087 
-4.81541482076144 0 -0.0732013329607674 4.40403030722566 1:0.154679608384557 2:0.0518629700115898 3:0.714756771459865 4:0.382317243954813 5:0.741184543357974 6:0.322099411896672 7:0.708330354033317 8:0.359682208490491 9:0.518077811287495 10:0.220331109559542 11:0.729397321793384 12:0.459239924474703 13:0.579740808869418 14:0.237467149210907 15:0.726293240808005 16:0.440271006308767 17:0.684894835484303 18:0.348192621300826 19:0.714324650012933 20:0.384519504188287 21:0.484645623132522 22:0.265553623342301 23:0.741415308319433 24:0.511726727715925 
0 -1.08467660787869 0 0 1:0.168286400222953 2:0.0670176005854272 3:0.738707563568911 4:0.513529411764706 5:0.741184543357974 6:0.320324038126408 7:0.725331604227436 8:0.434888436951923 9:0.56334239294904 10:0.212191574439808 11:0.733184956602239 12:0.462427720068841 13:0.542275325581313 14:0.23230009080409 15:0.730374247248425 16:0.446926706943616 17:0.697078811404359 18:0.397512299476596 19:0.696790890636704 20:0.321485782939527 21:0.521761193759564 22:0.294566615494034 23:0.743164034126329 24:0.493644542782629 
0 -7.23259778389801 -4.42020831973688 1.29861053016268 1:0.176776695296637 2:0.0532544874590885 3:0.688814239100879 4:0.281310054381159 5:0.717357234270624 6:0.330644244520086 7:0.735115451625883 8:0.483395397841105 9:0.406716521895122 10:0.170582923235548 11:0.681412832355769 12:0.276182089310228 13:0.446786675785265 14:0.188160113252961 15:0.695466377145406 16:0.311439278694156 17:0.662793570021393 18:0.393708149022328 19:0.718350981834985 20:0.406289416055961 21:0.444798051088628 22:0.201659957123286 23:0.707957757920002 24:0.340750906773847 
0 -0.691598247251085 -0.536968787498275 0.760631601303607 1:0.154679608384557 2:0.0519500715464662 3:0.714273258131378 4:0.379397573429522 5:0.717733924345286 6:0.377879539499553 7:0.723605549833481 8:0.434490781819976 9:0.443153537824293 10:0.186375583603826 11:0.694207238233855 12:0.319925752584725 13:0.40206802232429 14:0.200200522439698 15:0.723593447979042 16:0.426935667249727 17:0.664978973078944 18:0.373855269539919 19:0.648515484896406 20:0.204216070541603 21:0.800858452663639 22:0.357263387655706 23:0.749619856676022 24:0.565276568521774 
-0.00265148374620929 0 0 0 1:0.141490392783397 2:0.0572441117386693 3:0.682115717964539 4:0.242941358982315 5:0.690132793501893 6:0.348234310414288 7:0.737436835908875 8:0.467811272845604 9:0.384262527517075 10:0.181684450336304 11:0.71051518552946 12:0.348519459258909 13:0.393675904348258 14:0.197277187389467 15:0.711670977383846 16:0.350885601022381 17:0.633952602226447 18:0.392095970096643 19:0.699414657667043 20:0.313346240353285 21:0.518055861959099 22:0.228036214522712 23:0.724743776280804 24:0.379745100726327 
-0.836144143945354 0 0 4.97827396615377 1:0.139754248593737 2:0.0506817279677456 3:0.643488034951281 4:0.177229552306545 5:0.748374319146884 6:0.360013797873128 7:0.728763558967068 8:0.459869060828991 9:0.354747845681641 10:0.180772984812443 11:0.715713222017564 12:0.397020337044649 13:0.336932427404953 14:0.17393892934831 15:0.698514246389568 16:0.321928295888467 17:0.647730530406738 18:0.374686068837973 19:0.702605668668493 20:0.351520165096155 21:0.472628325224605 22:0.217839472037681 23:0.69962652530333 24:0.32081672684695 
-0.816086462886033 0 0 0.498549078592395 1:0.160869220952922 2:0.0491631181122493 3:0.713786807776371 4:0.376457314779992 5:0.669133556549468 6:0.298193874430778 7:0.715708248870515 8:0.387406069306699 9:0.32908974057491 10:0.156095104134714 11:0.684564015588805 12:0.288863824440968 13:0.426733490518111 14:0.182577139312892 15:0.702924570616033 16:0.340918106887171 17:0.664679776001537 18:0.381119333617603 19:0.664772499427131 20:0.23814654195728 21:0.491258908061801 22:0.245519370691048 23:0.694364540581429 24:0.303234745440387 
-1.19754538405122 -6.72330729804112 -5.21620522579649 0 1:0.148231765320393 2:0.0512209092122515 3:0.727049782243425 4:0.448452116886874 5:0.657912709170353 6:0.331103329116434 7:0.73762850327948 8:0.513657948803897 9:0.247462158747405 10:0.163460000160915 11:0.706040008968131 12:0.371497880302713 13:0.278505561616875 14:0.15383952163712 15:0.69234082949987 16:0.31294414518996 17:0.576370018625857 18:0.351795754141449 19:0.698332640390399 20:0.348771198305321 21:0.376963306786847 22:0.228054556140654 23:0.716608746372487 24:0.399348707920554 
-10.02471 -4.35134044805486 -0.427088112629522 1.02080533347801 1:0.168286400222953 2:0.0597675610425882 3:0.726304825781794 4:0.437323575535808 5:0.605307382253537 6:0.335493195233157 7:0.729945140133931 8:0.45852013181102 9:0.344598723969359 10:0.163264092438811 11:0.688462044586283 12:0.296820538043833 13:0.447985859731997 14:0.2080054433007 15:0.720904400525623 16:0.416177039085054 17:0.610231536594761 18:0.327856411088247 19:0.703475166743311 20:0.346375014094035 21:0.421924694173805 22:0.230286653157232 23:0.719915036339074 24:0.393624594697143 
0 -1.48078816540434 0 1.75329948306571 1:0.168286400222953 2:0.0673664833255776 3:0.750826567516463 4:0.61026991441738 5:0.717357234270624 6:0.357129309699984 7:0.745415302704449 8:0.548085843843244 9:0.425632099954045 10:0.208254490082933 11:0.727550539829122 12:0.448152759451032 13:0.552196609429979 14:0.240141340869316 15:0.733899690069873 16:0.486646047814775 17:0.596535562071763 18:0.344345203649824 19:0.67901724510003 20:0.285597462385073 21:0.556010423732722 22:0.282880387662915 23:0.727410577000352 24:0.458027981345771 
0 0 0 0.562766537928384 1:0.208463501001974 2:0.0764005821686998 3:0.740245518623809 4:0.520076726342711 5:0.691860955272504 6:0.352104441258302 7:0.737704357946837 8:0.482045576977758 9:0.466501468660946 10:0.218228380677784 11:0.736407680298064 12:0.487932650201857 13:0.416159718664052 14:0.222235920496279 15:0.730596646231039 16:0.453223537086556 17:0.603841878898288 18:0.315881718904836 19:0.689262000027083 20:0.27821125356615 21:0.487485299953561 22:0.235644555100602 23:0.721863337031953 24:0.396266522807573 
0 -4.74441989522031 -9.72972336313562 0 1:0.0662912607362388 2:0.0314230178319861 3:0.710767065897222 4:0.365539961189584 5:0.338030845796179 6:0.249627998302544 7:0.722050501776724 8:0.430412402838135 9:0.29880517664054 10:0.149160812204414 11:0.684629103494109 12:0.292544714007438 13:0.213597265541558 14:0.135131866436139 15:0.678558903714674 16:0.266329182835462 17:0.583918711450964 18:0.416543916140734 19:0.751701905653091 20:0.585947389172102 21:0.414954435585438 22:0.195069658877365 23:0.649829795168883 24:0.207782324646422 
-10.02471 -3.85032601334319 -3.91864249634407 0 1:0.0988211768802618 2:0.0389711163630221 3:0.715715178749612 4:0.388095679584647 5:0.348029180156125 6:0.253892610256286 7:0.71273307661781 8:0.399939108280242 9:0.350176141270197 10:0.155143291990135 11:0.686515455237285 12:0.299242703667823 13:0.407975973433104 14:0.189392359280961 15:0.709131010312377 16:0.372923228432773 17:0.602341301232475 18:0.417643688168869 19:0.748610442889654 20:0.572424800147395 21:0.36050621184242 22:0.185141038825956 23:0.661665451888718 24:0.24322577902936 
-3.26068915610069 0 0 0 1:0.154679608384557 2:0.0627834781118864 3:0.748944921995619 4:0.594134752211842 5:0.388467011250644 6:0.224760240429537 7:0.697015224173106 8:0.331085970431115 9:0.376723422036526 10:0.171589517958228 11:0.684076906405996 12:0.288631236924228 13:0.487799752745636 14:0.216008055761761 15:0.727691676765065 16:0.453871759736172 17:0.566646932101248 18:0.391840625758976 19:0.747634333718399 20:0.559064116444123 21:0.324473773603194 22:0.162447381224637 23:0.649245132281366 24:0.203273193293031 
-4.27979903733718 0 0 0 1:0.0911086233569578 2:0.0388383370169742 3:0.631889974005211 4:0.15805132019338 5:0.346370524603809 6:0.238982537142647 7:0.714363043642096 8:0.396460222133717 9:0.302646722637081 10:0.165644918658695 11:0.71058378873661 12:0.379942773767195 13:0.339676022962394 14:0.163871103890694 15:0.709622698761455 16:0.369071406884188 17:0.576370018625857 18:0.414059515741588 19:0.748293380943505 20:0.564053066086171 21:0.36050621184242 22:0.174860027578941 23:0.647532863047363 24:0.201460337389208 
0 -1.31668368891636 0 0 1:0.176776695296637 2:0.0679073998354288 3:0.749767431114474 4:0.599586492074431 5:0.770136224369573 6:0.26715711799544 7:0.702813724382814 8:0.326036534873091 9:0.501507618315696 10:0.221925368661447 11:0.714131839395847 12:0.375330185233487 13:0.519952839533698 14:0.268856624205066 15:0.739709248217893 16:0.515810908988628 17:0.532499036121255 18:0.341541851169978 19:0.729666862266629 20:0.426275864504131 21:0.370414607330097 22:0.163698449513853 23:0.652579038524648 24:0.184154425653839 
-5.5683464896856 0 0 -5.66777616549158 1:0.128847050800552 2:0.0428239851868914 3:0.689326334407923 4:0.276332732423384 5:0.707867915980419 6:0.269659698693072 7:0.706019095012894 8:0.343644531804806 9:0.541657791074024 10:0.249289592362833 11:0.726099699726096 12:0.439318039285522 13:0.542275325581313 14:0.25164575252882 15:0.720006039347128 16:0.40369551773136 17:0.570596526062452 18:0.361632893743353 19:0.711367236295953 20:0.36911518530622 21:0.335861969050427 22:0.173394035340908 23:0.67075622381918 24:0.231702210335674 
0 -2.3648631568752 -0.772481624695809 0 1:0.176776695296637 2:0.0580311760453834 3:0.731830049937442 4:0.452507451082027 5:0.736222579833026 6:0.297923156742702 7:0.719506486914636 8:0.382775989606162 9:0.555187537290787 10:0.209268279667109 11:0.723944496282136 12:0.407471381427255 13:0.520696627104464 14:0.201391273098195 15:0.71435224957691 16:0.361310242955607 17:0.530106185513139 18:0.33903196783781 19:0.744575883698988 20:0.50407634458811 21:0.337921428857079 22:0.174136075205619 23:0.674613196925806 24:0.209843796050694 
-10.02471 0 0 0 1:0.0796721798998873 2:0.0301011803364168 3:0.655029884714735 4:0.194256756756757 5:0.365494192714318 6:0.24395669645611 7:0.695260603733486 8:0.330012018870445 9:0.262566477672324 10:0.154832113109625 11:0.703147338057961 12:0.343721767503456 13:0.450726701443164 14:0.180908210652946 15:0.707272971791842 16:0.361348959272498 17:0.613211427602327 18:0.445401016105659 19:0.751432314891886 20:0.585145642780373 21:0.416584718225233 22:0.203959019866367 23:0.664258561912816 24:0.241388525754806 
-4.58900248689873 0 0 0 1:0.159344359799775 2:0.0528551591188214 3:0.744045532033309 4:0.548587646979322 5:0.55044774691526 6:0.245932239284555 7:0.701137003762336 8:0.311740132412351 9:0.466814277932483 10:0.207821417140072 11:0.728618741794669 12:0.443459685902523 13:0.499221256432586 14:0.213943798275924 15:0.726918587520569 16:0.437620621933485 17:0.513265620134889 18:0.346510161163865 19:0.744107096687399 20:0.51361894451032 21:0.308324716670521 22:0.159023340177661 23:0.657711377851427 24:0.186499308223881 
-6.80711520182723 -7.47885640616133 -1.94461089931104 -4.30195219392006 1:0.132582521472478 2:0.0670894174544898 3:0.752974097391938 4:0.627810446212383 5:0.712338610931139 6:0.276552095375015 7:0.709796788700304 8:0.388592365105148 9:0.42756748295903 10:0.224314464502019 11:0.733603465076472 12:0.497276654717968 13:0.520696627104464 14:0.234017697139684 15:0.713894738915658 16:0.400793191553201 17:0.570596526062452 18:0.365789749399848 19:0.728588468321068 20:0.463706573953661 21:0.691544930464312 22:0.289372048421326 23:0.727842605876503 24:0.448587821742126 
-6.75100203946466 -2.42633457126361 0 -0.989925235889713 1:0.148231765320393 2:0.0466293986248103 3:0.691264822189192 4:0.292268479184367 5:0.512866196012123 6:0.274316638582209 7:0.697403594368006 8:0.351303589261465 9:0.416844124759659 10:0.173500813129161 11:0.693139100530497 12:0.316435900983664 13:0.432387801839584 14:0.220405559681961 15:0.719157602757492 16:0.410390765308832 17:0.644687888331836 18:0.415783895586678 19:0.740740123143946 20:0.533153547247892 21:0.326125799553329 22:0.187053244480123 23:0.662574450380442 24:0.252759055079945 
-6.80526145132616 -10.02471 -5.49242045086366 -4.31731324260887 1:0.134411332297541 2:0.0364734529960612 3:0.627876506781151 4:0.162254054957918 5:0.623273932605804 6:0.302180372102771 7:0.72461864985623 8:0.440514565387669 9:0.291119504980462 10:0.167716093650139 11:0.706792109408899 12:0.369294637403729 13:0.312109632245021 14:0.166149257702502 15:0.700341774028186 16:0.343172795959905 17:0.593812990491915 18:0.347406568058383 19:0.729759508957258 20:0.467971321647796 21:0.74061459822675 22:0.278902030916038 23:0.704341837730556 24:0.375154792762322 
0 0 -9.62354011545324 0 1:0.0441941738241592 2:0.0174270987082365 3:0.591769637407354 4:0.114207191388656 5:0.385532916217967 6:0.257039826925102 7:0.713217066058933 8:0.3962769599486 9:0.254556213204337 10:0.147638909887483 11:0.687530938797992 12:0.303402271324949 13:0.257106370553168 14:0.133927538334488 15:0.663582675367492 16:0.231231807528988 17:0.625454432105364 18:0.428743722392523 19:0.739487548954101 20:0.51722314616725 21:0.489095046507408 22:0.216373530480363 23:0.639193069809888 24:0.190088767544282 
0 0 -8.75316473792991 0 1:0.0441941738241592 2:0.0174270987082365 3:0.591769637407354 4:0.114207191388656 5:0.385532916217967 6:0.257039826925102 7:0.713217066058933 8:0.3962769599486 9:0.254556213204337 10:0.147638909887483 11:0.687530938797992 12:0.303402271324949 13:0.257106370553168 14:0.133927538334488 15:0.663582675367492 16:0.231231807528988 17:0.625454432105364 18:0.428743722392523 19:0.739487548954101 20:0.51722314616725 21:0.489095046507408 22:0.216373530480363 23:0.639193069809888 24:0.190088767544282 
0 0 -1.80949575879804 0 1:0.154679608384557 2:0.0543446792840254 3:0.742007803618795 4:0.536151694124961 5:0.646186507045495 6:0.264965957810034 7:0.694844698537805 8:0.306462427378109 9:0.49824407375967 10:0.224323709820135 11:0.724844215995427 12:0.431583992160499 13:0.501847389331503 14:0.253599012363435 15:0.730013923315334 16:0.457319249497362 17:0.589448568805593 18:0.375299070871075 19:0.718095700762943 20:0.396842862252725 21:0.314986633396739 22:0.167171112057545 23:0.663808565089009 24:0.216881068315536 
